{"learner":{"attributes":{"scikit_learn":"{\"_estimator_type\": \"classifier\"}"},"feature_names":[],"feature_types":[],"gradient_booster":{"gbtree":{"model":{"cats":{"enc":[],"feature_segments":[],"sorted_idx":[]},"gbtree_model_param":{"num_parallel_tree":"1","num_trees":"300"},"iteration_indptr":[0,1,2,3,4,5,6,7,8,9,10,11,12,13,14,15,16,17,18,19,20,21,22,23,24,25,26,27,28,29,30,31,32,33,34,35,36,37,38,39,40,41,42,43,44,45,46,47,48,49,50,51,52,53,54,55,56,57,58,59,60,61,62,63,64,65,66,67,68,69,70,71,72,73,74,75,76,77,78,79,80,81,82,83,84,85,86,87,88,89,90,91,92,93,94,95,96,97,98,99,100,101,102,103,104,105,106,107,108,109,110,111,112,113,114,115,116,117,118,119,120,121,122,123,124,125,126,127,128,129,130,131,132,133,134,135,136,137,138,139,140,141,142,143,144,145,146,147,148,149,150,151,152,153,154,155,156,157,158,159,160,161,162,163,164,165,166,167,168,169,170,171,172,173,174,175,176,177,178,179,180,181,182,183,184,185,186,187,188,189,190,191,192,193,194,195,196,197,198,199,200,201,202,203,204,205,206,207,208,209,210,211,212,213,214,215,216,217,218,219,220,221,222,223,224,225,226,227,228,229,230,231,232,233,234,235,236,237,238,239,240,241,242,243,244,245,246,247,248,249,250,251,252,253,254,255,256,257,258,259,260,261,262,263,264,265,266,267,268,269,270,271,272,273,274,275,276,277,278,279,280,281,282,283,284,285,286,287,288,289,290,291,292,293,294,295,296,297,298,299,300],"tree_info":[0,0,0,0,0,0,0,0,0,0,0,0,0,0,0,0,0,0,0,0,0,0,0,0,0,0,0,0,0,0,0,0,0,0,0,0,0,0,0,0,0,0,0,0,0,0,0,0,0,0,0,0,0,0,0,0,0,0,0,0,0,0,0,0,0,0,0,0,0,0,0,0,0,0,0,0,0,0,0,0,0,0,0,0,0,0,0,0,0,0,0,0,0,0,0,0,0,0,0,0,0,0,0,0,0,0,0,0,0,0,0,0,0,0,0,0,0,0,0,0,0,0,0,0,0,0,0,0,0,0,0,0,0,0,0,0,0,0,0,0,0,0,0,0,0,0,0,0,0,0,0,0,0,0,0,0,0,0,0,0,0,0,0,0,0,0,0,0,0,0,0,0,0,0,0,0,0,0,0,0,0,0,0,0,0,0,0,0,0,0,0,0,0,0,0,0,0,0,0,0,0,0,0,0,0,0,0,0,0,0,0,0,0,0,0,0,0,0,0,0,0,0,0,0,0,0,0,0,0,0,0,0,0,0,0,0,0,0,0,0,0,0,0,0,0,0,0,0,0,0,0,0,0,0,0,0,0,0,0,0,0,0,0,0,0,0,0,0,0,0,0,0,0,0,0,0,0,0,0,0,0,0,0,0,0,0,0,0,0,0,0,0,0,0,0,0,0,0,0,0],"trees":[{"base_weights":[9.527272E-1,-6.164133E0,1.0833749E0,-1.1134305E0,-7.5534706E0,1.0986784E0,-7.0270834E0,-3.843039E-1,3.6576548E-1,-7.7376304E0,-3.241197E0,3.9561343E-1,1.1091925E0,-3.1438484E0,-3.8646773E-1,-3.6186197E-1,6.31574E-1,-5.1432066E0,-3.880876E-1,1.6189486E-1,-3.7734482E-1,-3.8507807E-1,9.254762E-1,1.1136317E0,1.535015E-1,-3.6225984E-1,-6.898123E-1,-3.3949193E-1,7.73429E-1,-3.5365877E-1,-2.3783126E0,9.5213675E-1,-3.1291538E-1,-3.5258642E-1,9.7235215E-1,1.009749E0,1.1384604E0,-3.803609E-1,8.325185E-1,-2.9453552E-1,2.740903E-1,4.3733012E-2,-3.2162818E-1,-9.094748E-3,-2.8624105E-1,3.689538E-3,5.4405756E-2,-2.9700863E-1,4.9395543E-2,-3.8026875E-1,5.1314928E-2,5.7060402E-2,5.4327328E-2,-2.5473353E-1,4.309852E-2,-2.0530021E-1,3.4261804E-2],"categories":[],"categories_nodes":[],"categories_segments":[],"categories_sizes":[],"default_left":[0,0,0,0,0,0,0,0,0,0,0,0,0,0,0,0,0,0,0,0,0,0,0,0,0,0,0,0,0,0,0,0,0,0,0,0,0,0,0,0,0,0,0,0,0,0,0,0,0,0,0,0,0,0,0,0,0],"id":0,"left_children":[1,3,5,7,9,11,13,-1,15,17,19,21,23,25,-1,-1,27,29,-1,31,-1,-1,33,35,37,-1,39,-1,41,-1,43,45,-1,-1,47,49,51,-1,53,-1,55,-1,-1,-1,-1,-1,-1,-1,-1,-1,-1,-1,-1,-1,-1,-1,-1],"loss_changes":[1.26086016E5,1.7145094E4,1.6534594E4,5.141394E3,1.4972812E3,9.820156E2,6.5994824E2,0E0,8.7841956E2,7.509375E1,1.1768696E3,8.415538E3,5.553906E2,3.987267E2,0E0,0E0,4.460543E2,8.933075E1,0E0,2.38292E2,0E0,0E0,6.950338E2,3.3501562E2,3.2029514E3,0E0,1.3296596E2,0E0,3.0598935E2,0E0,7.014125E1,4.893326E0,0E0,0E0,2.0273584E2,3.593834E3,1.3765625E1,0E0,1.0192264E2,0E0,4.4341583E1,0E0,0E0,0E0,0E0,0E0,0E0,0E0,0E0,0E0,0E0,0E0,0E0,0E0,0E0,0E0,0E0],"parents":[2147483647,0,0,1,1,2,2,3,3,4,4,5,5,6,6,8,8,9,9,10,10,11,11,12,12,13,13,16,16,17,17,19,19,22,22,23,23,24,24,26,26,28,28,30,30,31,31,34,34,35,35,36,36,38,38,40,40],"right_children":[2,4,6,8,10,12,14,-1,16,18,20,22,24,26,-1,-1,28,30,-1,32,-1,-1,34,36,38,-1,40,-1,42,-1,44,46,-1,-1,48,50,52,-1,54,-1,56,-1,-1,-1,-1,-1,-1,-1,-1,-1,-1,-1,-1,-1,-1,-1,-1],"split_conditions":[2.1306875E-1,-8.6904037E-1,1.7328477E-1,-6.2125885E-1,8.493932E1,8.6120147E-1,2.286739E-1,-3.843039E-1,-7.655777E-1,-8.337927E-1,8.569192E1,-6.2125885E-1,-3.3166133E-2,-6.2125885E-1,-3.8646773E-1,-3.6186197E-1,-1.2075219E0,-6.2125885E-1,-3.880876E-1,3E-2,-3.7734482E-1,-3.8507807E-1,-1.1272556E0,-6.2125885E-1,-6.2125885E-1,-3.6225984E-1,1.5468436E-2,-3.3949193E-1,1.52E-1,-3.5365877E-1,6.121E1,6.555979E-2,-3.1291538E-1,-3.5258642E-1,-1.384162E0,1.1316473E0,-5.0649256E-1,-3.803609E-1,-1.4944488E0,-2.9453552E-1,1.2349195E0,4.3733012E-2,-3.2162818E-1,-9.094748E-3,-2.8624105E-1,3.689538E-3,5.4405756E-2,-2.9700863E-1,4.9395543E-2,-3.8026875E-1,5.1314928E-2,5.7060402E-2,5.4327328E-2,-2.5473353E-1,4.309852E-2,-2.0530021E-1,3.4261804E-2],"split_indices":[3,4,4,8,1,3,4,0,10,4,1,8,4,8,0,0,9,8,0,2,0,0,10,8,8,0,10,0,2,0,1,3,0,0,9,3,4,0,10,0,3,0,0,0,0,0,0,0,0,0,0,0,0,0,0,0,0],"split_type":[0,0,0,0,0,0,0,0,0,0,0,0,0,0,0,0,0,0,0,0,0,0,0,0,0,0,0,0,0,0,0,0,0,0,0,0,0,0,0,0,0,0,0,0,0,0,0,0,0,0,0,0,0,0,0,0,0],"sum_hessian":[1.3559717E5,2.4435183E3,1.3315366E5,5.275393E2,1.915979E3,1.3290375E5,2.499086E2,9.614285E1,4.3139648E2,1.8367448E3,7.9234276E1,1.9588237E3,1.3094492E5,3.9112305E1,2.107963E2,1.3686614E1,4.1770987E2,1.8893137E1,1.8178516E3,4.4793373E1,3.4440907E1,1.1947741E2,1.8393463E3,1.3033931E5,6.05608E2,1.3910984E1,2.520132E1,6.955492E0,4.1075436E2,1.0208868E1,8.684269E0,4.0642513E1,4.1508584E0,9.872312E0,1.829474E3,2.5150691E4,1.05188625E5,4.790315E1,5.5770483E2,3.14119E0,2.206013E1,4.059304E2,4.8239703E0,5.879635E0,2.804634E0,5.655264E0,3.4987247E1,3.2533755E0,1.8262207E3,4.734222E1,2.5103348E4,9.988116E4,5.307465E3,1.9071511E0,5.557977E2,1.1218536E0,2.0938276E1],"tree_param":{"num_deleted":"0","num_feature":"11","num_nodes":"57","size_leaf_vector":"1"}},{"base_weights":[9.394005E-1,1.0153427E0,-5.407685E0,-5.457261E0,1.0262585E0,-3.808711E0,-2.7945805E-1,4.7179826E-2,-2.8027257E-1,1.0820805E0,8.617481E-2,-1.3017607E0,-2.7933317E-1,1.1034276E0,7.856714E-1,-3.8825383E0,7.432363E-1,-4.310826E0,4.6166703E-1,1.0038629E0,1.128991E0,-1.3362323E0,1.0226004E0,-5.7497916E0,-2.59963E0,-3.412392E0,9.450952E-1,-1.6512431E0,-2.7548727E-1,-2.0235518E-1,8.2741517E-1,5.097589E-2,-7.650063E-2,-1.6124664E-2,5.645446E-2,-1.3275432E-2,-2.2199623E-1,-2.6217464E-1,5.1776208E-2,-1.0559564E-1,-2.9141125E-1,-3.20982E-2,-2.3405671E-1,-2.728685E-1,-5.49558E-2,4.8348296E-2,-5.7548482E-2,-2.2580603E-1,2.400649E-2,4.718368E-2,4.1437405E-3],"categories":[],"categories_nodes":[],"categories_segments":[],"categories_sizes":[],"default_left":[0,0,0,0,0,0,0,0,0,0,0,0,0,0,0,0,0,0,0,0,0,0,0,0,0,0,0,0,0,0,0,0,0,0,0,0,0,0,0,0,0,0,0,0,0,0,0,0,0,0,0],"id":1,"left_children":[1,3,5,7,9,11,-1,-1,-1,13,15,17,-1,19,21,23,25,27,29,31,33,35,37,39,41,43,45,47,-1,-1,49,-1,-1,-1,-1,-1,-1,-1,-1,-1,-1,-1,-1,-1,-1,-1,-1,-1,-1,-1,-1],"loss_changes":[6.3192062E4,9.158047E3,4.2851172E2,2.1231201E2,6.7864375E3,7.1094336E2,0E0,0E0,0E0,7.715781E2,1.8908203E4,3.6368726E2,0E0,2.8867188E2,4.1261206E3,2.4523213E3,5.221617E3,7.152084E1,7.571144E1,9.2472266E2,1.32734375E1,2.738879E3,6.031548E2,1.0713867E2,2.492167E3,1.3582925E3,2.7311865E2,5.8857536E1,0E0,0E0,3.5069466E0,0E0,0E0,0E0,0E0,0E0,0E0,0E0,0E0,0E0,0E0,0E0,0E0,0E0,0E0,0E0,0E0,0E0,0E0,0E0,0E0],"parents":[2147483647,0,0,1,1,2,2,3,3,4,4,5,5,9,9,10,10,11,11,13,13,14,14,15,15,16,16,17,17,18,18,19,19,20,20,21,21,22,22,23,23,24,24,25,25,26,26,27,27,30,30],"right_children":[2,4,6,8,10,12,-1,-1,-1,14,16,18,-1,20,22,24,26,28,30,32,34,36,38,40,42,44,46,48,-1,-1,50,-1,-1,-1,-1,-1,-1,-1,-1,-1,-1,-1,-1,-1,-1,-1,-1,-1,-1,-1,-1],"split_conditions":[1.581785E-1,2.485E1,2.286739E-1,-2.1323717E0,-5.0649256E-1,-9.463749E-1,-2.7945805E-1,4.7179826E-2,-2.8027257E-1,-8.337927E-1,-6.2125885E-1,-1.2321304E0,-2.7933317E-1,-6.2125885E-1,-6.2125885E-1,1.5468436E-2,6.99E1,3.2254387E-2,-7.655777E-1,1.5492684E0,5.165E1,5.793E1,5.508E1,-4.9642175E-1,7.133421E-1,7.925918E-1,1.5492684E0,2.8714575E-2,-2.7548727E-1,-2.0235518E-1,-6.2897843E-1,5.097589E-2,-7.650063E-2,-1.6124664E-2,5.645446E-2,-1.3275432E-2,-2.2199623E-1,-2.6217464E-1,5.1776208E-2,-1.0559564E-1,-2.9141125E-1,-3.20982E-2,-2.3405671E-1,-2.728685E-1,-5.49558E-2,4.8348296E-2,-5.7548482E-2,-2.2580603E-1,2.400649E-2,4.718368E-2,4.1437405E-3],"split_indices":[4,1,4,4,4,5,0,0,0,4,8,5,0,8,8,10,1,2,10,10,1,1,1,4,10,10,10,2,0,0,6,0,0,0,0,0,0,0,0,0,0,0,0,0,0,0,0,0,0,0,0],"split_type":[0,0,0,0,0,0,0,0,0,0,0,0,0,0,0,0,0,0,0,0,0,0,0,0,0,0,0,0,0,0,0,0,0,0,0,0,0,0,0,0,0,0,0,0,0,0,0,0,0,0,0],"sum_hessian":[1.310883E5,1.2953922E5,1.5490834E3,2.1725386E2,1.2932197E5,1.6013477E2,1.3889486E3,4.794505E0,2.1245937E2,1.22073125E5,7.248838E3,6.716411E1,9.297066E1,1.13869586E5,8.203539E3,1.0289535E3,6.219885E3,2.4283253E1,4.288086E1,2.3271441E4,9.059815E4,8.2352466E2,7.3800146E3,4.176249E2,6.1132855E2,2.8739697E2,5.932488E3,8.283997E0,1.5999256E1,2.4622407E0,4.0418617E1,2.312914E4,1.4229985E2,5.904891E0,9.059224E4,6.131004E2,2.1042421E2,1.4356841E1,7.3656577E3,9.403416E0,4.082215E2,3.1571E2,2.9561856E2,1.5182327E2,1.355737E2,5.8717593E3,6.0728397E1,3.0566E0,5.2273965E0,3.4728394E1,5.690226E0],"tree_param":{"num_deleted":"0","num_feature":"11","num_nodes":"51","size_leaf_vector":"1"}},{"base_weights":[9.262157E-1,-3.995445E0,1.0627131E0,-2.3071574E-1,-2.5335503E0,6.507133E-2,1.0817693E0,-2.4504404E-1,-7.2272193E-1,-2.3447357E-1,8.126432E-1,9.3682545E-1,1.116968E0,-2.5815222E-1,-2.0742212E-1,-2.53821E-1,8.766086E-1,-2.397439E-1,9.6229225E-1,1.0576968E0,1.1199287E0,-2.5810423E-1,8.048165E-2,9.204922E-1,-2.957446E-1,4.6796656E-1,1.0533906E0,1.0662954E0,6.064925E-1,1.1212232E0,1.0583179E0,1.5040256E-2,-2.548963E-1,-2.3479569E-1,4.6951532E-2,-3.2205823E-1,2.8449986E-2,-4.4494238E-2,5.313295E-2,2.5266489E-2,5.364987E-2,4.0016554E-2,-2.5560233E-1,5.3331543E-2,5.613643E-2,5.3274363E-2,-2.160215E-1],"categories":[],"categories_nodes":[],"categories_segments":[],"categories_sizes":[],"default_left":[0,0,0,0,0,0,0,0,0,0,0,0,0,0,0,0,0,0,0,0,0,0,0,0,0,0,0,0,0,0,0,0,0,0,0,0,0,0,0,0,0,0,0,0,0,0,0],"id":2,"left_children":[1,3,5,-1,7,9,11,-1,13,-1,15,17,19,-1,21,-1,23,-1,25,27,29,-1,31,33,-1,35,37,39,41,43,45,-1,-1,-1,-1,-1,-1,-1,-1,-1,-1,-1,-1,-1,-1,-1,-1],"loss_changes":[8.491937E4,3.074504E3,2.338125E3,0E0,4.355271E3,8.201216E3,6.146719E2,0E0,1.3198108E3,0E0,7.5550366E2,3.4476055E3,1.5859375E1,0E0,7.3975E2,0E0,5.9353345E2,0E0,1.0570352E3,1.7345215E1,6.1796875E0,0E0,5.6152167E2,2.086322E2,0E0,2.5558296E3,3.5808008E2,1.6562012E1,1.02792465E2,6.2421875E0,7.866553E1,0E0,0E0,0E0,0E0,0E0,0E0,0E0,0E0,0E0,0E0,0E0,0E0,0E0,0E0,0E0,0E0],"parents":[2147483647,0,0,1,1,2,2,4,4,5,5,6,6,8,8,10,10,11,11,12,12,14,14,16,16,18,18,19,19,20,20,22,22,23,23,25,25,26,26,27,27,28,28,29,29,30,30],"right_children":[2,4,6,-1,8,10,12,-1,14,-1,16,18,20,-1,22,-1,24,-1,26,28,30,-1,32,34,-1,36,38,40,42,44,46,-1,-1,-1,-1,-1,-1,-1,-1,-1,-1,-1,-1,-1,-1,-1,-1],"split_conditions":[2.1306875E-1,-2.2945815E-1,8.902691E-1,-2.3071574E-1,-6.2125885E-1,-6.2125885E-1,-6.2125885E-1,-2.4504404E-1,-7.655777E-1,-2.3447357E-1,-1.1272556E0,1.1316473E0,1.185287E0,-2.5815222E-1,-1.2075219E0,-2.53821E-1,1.9944292E1,-2.397439E-1,-6.4099205E-1,1.5492684E0,1.5492684E0,-2.5810423E-1,1.52E-1,-1.384162E0,-2.957446E-1,1.2389265E0,-1.4944488E0,-1.4944488E0,1.2457542E1,-1.4944488E0,1.9914791E-1,1.5040256E-2,-2.548963E-1,-2.3479569E-1,4.6951532E-2,-3.2205823E-1,2.8449986E-2,-4.4494238E-2,5.313295E-2,2.5266489E-2,5.364987E-2,4.0016554E-2,-2.5560233E-1,5.3331543E-2,5.613643E-2,5.3274363E-2,-2.160215E-1],"split_indices":[3,3,3,0,8,8,8,0,10,0,10,3,3,0,9,0,0,0,7,10,10,0,2,9,0,3,10,10,0,10,2,0,0,0,0,0,0,0,0,0,0,0,0,0,0,0,0],"split_type":[0,0,0,0,0,0,0,0,0,0,0,0,0,0,0,0,0,0,0,0,0,0,0,0,0,0,0,0,0,0,0,0,0,0,0,0,0,0,0,0,0,0,0,0,0,0,0],"sum_hessian":[1.2639949E5,3.410204E3,1.2298929E5,2.394412E3,1.01579193E3,2.3052942E3,1.2068399E5,4.395081E2,5.762838E2,3.1250372E2,1.9927905E3,2.3586264E4,9.709773E4,5.8985767E1,5.1729803E2,2.057058E1,1.97222E3,1.0350531E2,2.3482758E4,4.6364683E3,9.246126E4,2.7478504E1,4.8981955E2,1.9604171E3,1.1802849E1,3.655128E3,1.982763E4,4.548426E3,8.80424E1,9.054167E4,1.9195867E3,4.7073337E2,1.9086176E1,5.619551E0,1.9547975E3,5.1774673E1,3.6033533E3,9.366752E1,1.9733963E4,5.4601383E1,4.493824E3,8.598776E1,2.0546396E0,2.4487332E3,8.809294E4,1.9178323E3,1.7543795E0],"tree_param":{"num_deleted":"0","num_feature":"11","num_nodes":"47","size_leaf_vector":"1"}},{"base_weights":[9.1389054E-1,-3.4423547E0,9.364106E-1,-1.8668728E-1,-1.3501364E0,4.9690938E-1,1.0507938E0,-3.3152425E0,3.218312E-1,-9.428629E-1,8.801579E-1,-3.2956667E0,1.0583197E0,-1.958348E-1,-2.1220818E0,8.710321E-1,-1.6312014E-1,-3.6733818E0,2.551639E-1,-1.9219347E0,9.038866E-1,-1.9126716E-1,5.3356137E-2,7.417703E-1,1.0840628E0,-1.6996609E-1,-7.697625E-1,1.0182015E0,-1.03092484E-1,-6.3250613E-1,-3.8371131E0,-1.1845598E0,5.487736E-1,-2.6485076E0,7.538239E-1,9.317224E-1,-1.4807489E0,-2.5083206E0,8.2952154E-1,1.0882399E0,8.78656E-1,4.5948397E-2,-1.4958288E-1,5.3096462E-2,2.9977554E-2,-1.906849E-1,3.5092726E-2,-1.9903402E-1,-1.3988325E-1,-5.002737E-3,-2.4289559E-1,3.256257E-2,-2.1826129E-1,-2.2144389E-1,-8.9989096E-2,4.6883374E-2,-1.3570218E-1,-2.6495129E-2,4.7984045E-2,-1.8818758E-1,-1.9525148E-2,-2.2705935E-2,-1.5637855E-1,4.3217715E-2,-1.6338465E-1,5.1083315E-2,5.485621E-2,-1.3439368E-1,4.546304E-2],"categories":[],"categories_nodes":[],"categories_segments":[],"categories_sizes":[],"default_left":[0,0,0,0,0,0,0,0,0,0,0,0,0,0,0,0,0,0,0,0,0,0,0,0,0,0,0,0,0,0,0,0,0,0,0,0,0,0,0,0,0,0,0,0,0,0,0,0,0,0,0,0,0,0,0,0,0,0,0,0,0,0,0,0,0,0,0,0,0],"id":3,"left_children":[1,3,5,-1,7,9,11,13,15,17,19,21,23,-1,25,27,-1,29,31,33,35,-1,-1,37,39,-1,41,43,-1,45,47,49,51,53,55,57,59,61,63,65,67,-1,-1,-1,-1,-1,-1,-1,-1,-1,-1,-1,-1,-1,-1,-1,-1,-1,-1,-1,-1,-1,-1,-1,-1,-1,-1,-1,-1],"loss_changes":[1.1929914E4,3.7627734E2,6.0797656E3,0E0,2.574364E2,1.3784092E4,3.1428047E3,1.7493164E1,8.762367E1,1.7180742E4,1.3134785E3,3.8798645E2,7.7990625E2,0E0,2.1968185E1,1.8560362E1,0E0,7.949961E2,1.5440576E3,3.2468597E2,1.2999619E3,0E0,0E0,2.057948E3,7.507031E1,0E0,3.3540962E1,4.037094E-2,0E0,3.551183E2,2.1563086E2,2.4646208E3,1.530377E3,1.8960913E2,2.563928E1,7.907637E2,5.6133594E2,2.399657E2,1.004667E3,5.0234375E1,1.9575208E2,0E0,0E0,0E0,0E0,0E0,0E0,0E0,0E0,0E0,0E0,0E0,0E0,0E0,0E0,0E0,0E0,0E0,0E0,0E0,0E0,0E0,0E0,0E0,0E0,0E0,0E0,0E0,0E0],"parents":[2147483647,0,0,1,1,2,2,4,4,5,5,6,6,7,7,8,8,9,9,10,10,11,11,12,12,14,14,15,15,17,17,18,18,19,19,20,20,23,23,24,24,26,26,27,27,29,29,30,30,31,31,32,32,33,33,34,34,35,35,36,36,37,37,38,38,39,39,40,40],"right_children":[2,4,6,-1,8,10,12,14,16,18,20,22,24,-1,26,28,-1,30,32,34,36,-1,-1,38,40,-1,42,44,-1,46,48,50,52,54,56,58,60,62,64,66,68,-1,-1,-1,-1,-1,-1,-1,-1,-1,-1,-1,-1,-1,-1,-1,-1,-1,-1,-1,-1,-1,-1,-1,-1,-1,-1,-1,-1],"split_conditions":[2.569E1,2.485E1,-6.2125885E-1,-1.8668728E-1,4.067137E1,-6.4099205E-1,5.379E1,7.925918E-1,3.8E-1,7.859924E1,-1.4944488E0,-6.4099205E-1,6.919E1,-1.958348E-1,2.46E-1,4.8E1,-1.6312014E-1,1.284227E0,-3.8096324E-1,6.185E1,1.5492684E0,-1.9126716E-1,5.3356137E-2,-1.2075219E0,1.5492684E0,-1.6996609E-1,2.48E-1,9.01409E-1,-1.03092484E-1,7.458E1,6.952704E-1,5.3871796E-3,1.5492684E0,2.4568926E1,7.370042E-1,2.923E1,8.133416E-1,2.5818088E0,1.419784E0,7.524E1,7.139E1,4.5948397E-2,-1.4958288E-1,5.3096462E-2,2.9977554E-2,-1.906849E-1,3.5092726E-2,-1.9903402E-1,-1.3988325E-1,-5.002737E-3,-2.4289559E-1,3.256257E-2,-2.1826129E-1,-2.2144389E-1,-8.9989096E-2,4.6883374E-2,-1.3570218E-1,-2.6495129E-2,4.7984045E-2,-1.8818758E-1,-1.9525148E-2,-2.2705935E-2,-1.5637855E-1,4.3217715E-2,-1.6338465E-1,5.1083315E-2,5.485621E-2,-1.3439368E-1,4.546304E-2],"split_indices":[1,1,8,0,0,7,1,10,2,1,10,7,1,0,2,0,0,0,10,1,10,0,0,9,10,0,2,5,0,1,5,9,10,0,9,1,5,0,9,1,1,0,0,0,0,0,0,0,0,0,0,0,0,0,0,0,0,0,0,0,0,0,0,0,0,0,0,0,0],"split_type":[0,0,0,0,0,0,0,0,0,0,0,0,0,0,0,0,0,0,0,0,0,0,0,0,0,0,0,0,0,0,0,0,0,0,0,0,0,0,0,0,0,0,0,0,0,0,0,0,0,0,0,0,0,0,0,0,0,0,0,0,0,0,0,0,0,0,0,0,0],"sum_hessian":[1.2157233E5,6.244671E2,1.2094786E5,5.474387E2,7.702835E1,2.4978152E4,9.59697E4,3.495822E1,4.207013E1,5.2507793E3,1.9727373E4,1.6512997E2,9.580458E4,2.1724585E1,1.3233636E1,3.713676E1,4.9333673E0,1.6006176E3,3.6501619E3,1.6498111E2,1.9562393E4,1.4736224E2,1.7767727E1,7.2075234E3,8.8597055E4,6.0272837E0,7.206352E0,3.598395E1,1.1528096E0,8.2027916E1,1.5185896E3,6.177876E2,3.0323743E3,1.2975717E2,3.5223946E1,1.9337277E4,2.251141E2,1.887592E2,7.018764E3,8.682707E4,1.7699827E3,4.4276E0,2.7787523E0,3.1189657E1,4.7942953E0,2.3690454E1,5.833746E1,1.3318119E3,1.867778E2,4.777623E2,1.4002531E2,2.9712778E3,6.109632E1,4.052651E1,8.923066E1,3.4143494E1,1.0804518E0,3.6261053E2,1.8974668E4,7.196512E1,1.5314899E2,4.41237E1,1.4463551E2,6.960379E3,5.838518E1,1.0236503E4,7.659057E4,1.4320487E1,1.7556621E3],"tree_param":{"num_deleted":"0","num_feature":"11","num_nodes":"69","size_leaf_vector":"1"}},{"base_weights":[9.0257275E-1,9.983641E-1,-3.0065448E0,1.0652664E0,2.5609967E-1,-3.2709944E0,1.7129613E-1,-2.9328399E0,1.0673915E0,-2.382311E0,8.183152E-1,-2.4381518E0,-3.5370438E0,8.4394604E-1,-2.0221817E-1,4.822198E-2,-1.671049E-1,9.3077403E-1,1.1021748E0,-3.6252356E0,-1.5021127E0,-1.4933578E0,9.6547157E-1,-6.7795014E-1,-3.63043E0,-3.4397538E0,-3.7819288E0,1.0265955E0,-2.005856E-1,9.7807777E-1,-7.529207E-1,-1.5093006E-1,1.1024663E0,-3.550125E0,-2.2251788E-1,-1.6536456E-1,-2.916217E0,-8.5131204E-1,-3.5935638E0,9.7061497E-1,-2.6893628E-1,-1.9282542E-1,1.6938381E-1,-3.5268526E0,-4.6120253E0,-3.3449695E0,-3.570671E0,-3.5491087E0,-2.1163347E-1,-2.6098106E-2,1.0747586E0,2.8374238E-2,5.280533E-2,-1.6306943E-1,1.216014E-2,5.539331E-2,5.161814E-2,-1.7327854E-1,-1.9634698E-1,-1.9462459E-1,9.911361E-3,-1.6635512E-1,-1.6356682E-2,-1.6968143E-1,-1.733243E-2,-1.2827878E-1,-2.1029149E-1,3.034912E-2,5.0368786E-2,2.2263182E-2,-2.6432827E-1,-1.7926648E-1,4.5442905E-2,-1.8250686E-1,-2.8888586E-1,-1.6381541E-1,-1.8289618E-1,-1.6404703E-1,-1.9126596E-1,-1.8288432E-1,-3.113395E-2,5.480794E-2,3.0228171E-2],"categories":[],"categories_nodes":[],"categories_segments":[],"categories_sizes":[],"default_left":[0,0,0,0,0,0,0,0,0,0,0,0,0,0,0,0,0,0,0,0,0,0,0,0,0,0,0,0,0,0,0,0,0,0,0,0,0,0,0,0,0,0,0,0,0,0,0,0,0,0,0,0,0,0,0,0,0,0,0,0,0,0,0,0,0,0,0,0,0,0,0,0,0,0,0,0,0,0,0,0,0,0,0],"id":4,"left_children":[1,3,5,7,9,11,13,15,17,19,21,23,25,27,-1,-1,-1,29,31,33,35,37,39,41,43,45,47,49,-1,51,53,-1,55,57,-1,59,61,63,65,67,-1,-1,69,71,73,75,77,79,-1,-1,81,-1,-1,-1,-1,-1,-1,-1,-1,-1,-1,-1,-1,-1,-1,-1,-1,-1,-1,-1,-1,-1,-1,-1,-1,-1,-1,-1,-1,-1,-1,-1,-1],"loss_changes":[4.3999484E4,5.694836E3,2.3624492E3,8.9702344E2,1.4069236E4,5.6629297E2,6.1836646E2,9.2794525E1,4.986172E2,1.817294E3,2.6610596E3,1.3226267E3,3.378711E1,1.7071948E2,0E0,0E0,0E0,1.7007031E3,1.04046875E2,2.696582E1,1.8464878E3,6.284166E2,2.4508887E2,6.906857E2,2.1982422E1,5.6367188E0,4.253174E1,1.412294E1,0E0,6.6455664E2,1.4596833E3,0E0,3.0578125E1,6.698242E0,0E0,6.828697E2,5.0394824E2,4.6067123E2,5.802466E1,9.7583984E1,0E0,0E0,3.0826474E2,9.262793E1,1.5527832E1,6.015625E0,3.0254395E1,1.1459961E2,0E0,0E0,1.1150818E0,0E0,0E0,0E0,0E0,0E0,0E0,0E0,0E0,0E0,0E0,0E0,0E0,0E0,0E0,0E0,0E0,0E0,0E0,0E0,0E0,0E0,0E0,0E0,0E0,0E0,0E0,0E0,0E0,0E0,0E0,0E0,0E0],"parents":[2147483647,0,0,1,1,2,2,3,3,4,4,5,5,6,6,7,7,8,8,9,9,10,10,11,11,12,12,13,13,17,17,18,18,19,19,20,20,21,21,22,22,23,23,24,24,25,25,26,26,27,27,29,29,30,30,32,32,33,33,35,35,36,36,37,37,38,38,39,39,42,42,43,43,44,44,45,45,46,46,47,47,50,50],"right_children":[2,4,6,8,10,12,14,16,18,20,22,24,26,28,-1,-1,-1,30,32,34,36,38,40,42,44,46,48,50,-1,52,54,-1,56,58,-1,60,62,64,66,68,-1,-1,70,72,74,76,78,80,-1,-1,82,-1,-1,-1,-1,-1,-1,-1,-1,-1,-1,-1,-1,-1,-1,-1,-1,-1,-1,-1,-1,-1,-1,-1,-1,-1,-1,-1,-1,-1,-1,-1,-1],"split_conditions":[-2.9539035E-3,-6.5755415E-1,9.405E1,2.485E1,-6.2125885E-1,1.9342636E-1,1.581785E-1,-2.1323717E0,-6.2125885E-1,1.5468436E-2,6.99E1,-9.463749E-1,-6.2125885E-1,-1.0129265E0,-2.0221817E-1,4.822198E-2,-1.671049E-1,-8.8414645E-1,5.0798306E1,8.389E1,7.742699E-1,-1.0915997E0,3.8772455E-1,7.088E1,1.397184E0,-6.4099205E-1,7.112E1,-4.0558088E-3,-2.005856E-1,-6.4099205E-1,-6.4099205E-1,-1.5093006E-1,-9.193942E-1,1.7651931E0,-2.2251788E-1,4.048266E1,1.0140647E0,-7.655777E-1,5.669E1,7.504E1,-2.6893628E-1,-1.9282542E-1,-4.9779093E-1,-6.2125885E-1,6.894E1,7.859924E1,2.569E1,7.088E1,-2.1163347E-1,-2.6098106E-2,-1.0915997E0,2.8374238E-2,5.280533E-2,-1.6306943E-1,1.216014E-2,5.539331E-2,5.161814E-2,-1.7327854E-1,-1.9634698E-1,-1.9462459E-1,9.911361E-3,-1.6635512E-1,-1.6356682E-2,-1.6968143E-1,-1.733243E-2,-1.2827878E-1,-2.1029149E-1,3.034912E-2,5.0368786E-2,2.2263182E-2,-2.6432827E-1,-1.7926648E-1,4.5442905E-2,-1.8250686E-1,-2.8888586E-1,-1.6381541E-1,-1.8289618E-1,-1.6404703E-1,-1.9126596E-1,-1.8288432E-1,-3.113395E-2,5.480794E-2,3.0228171E-2],"split_indices":[4,4,1,1,8,4,4,4,8,10,1,5,8,5,0,0,0,4,1,1,10,5,6,1,5,7,1,10,0,7,7,0,4,6,0,1,6,10,1,1,0,0,6,8,1,1,1,1,0,0,5,0,0,0,0,0,0,0,0,0,0,0,0,0,0,0,0,0,0,0,0,0,0,0,0,0,0,0,0,0,0,0,0],"split_type":[0,0,0,0,0,0,0,0,0,0,0,0,0,0,0,0,0,0,0,0,0,0,0,0,0,0,0,0,0,0,0,0,0,0,0,0,0,0,0,0,0,0,0,0,0,0,0,0,0,0,0,0,0,0,0,0,0,0,0,0,0,0,0,0,0,0,0,0,0,0,0,0,0,0,0,0,0,0,0,0,0,0,0],"sum_hessian":[1.1749228E5,1.1468277E5,2.8095095E3,1.0520035E5,9.482421E3,2.5936455E3,2.15864E2,5.5157795E1,1.05145195E5,1.6650942E3,7.817327E3,6.3040027E2,1.9632454E3,1.8685005E2,2.9013954E1,5.11283E0,5.0044964E1,2.1343283E4,8.3801914E4,6.890173E2,9.7607697E2,4.6730502E2,7.350022E3,2.5520334E2,3.7519693E2,1.4158081E3,5.474372E2,1.8083632E2,6.013725E0,2.0760434E4,5.8284937E2,5.1976514E0,8.379671E4,6.363896E2,5.262768E1,5.023367E2,4.7374026E2,3.589708E2,1.0833423E2,7.3449146E3,5.1076665E0,5.2965477E1,2.0223787E2,3.4353983E2,3.1657114E1,8.3663416E2,5.79174E2,3.668321E2,1.806051E2,5.157977E0,1.7567834E2,3.3165886E3,1.7443846E4,1.6501913E2,4.1783023E2,7.779004E4,6.0066743E3,5.2808765E2,1.0830194E2,4.3786095E1,4.585506E2,4.0860928E2,6.5131E1,5.8507267E1,3.0046353E2,4.2375877E1,6.595835E1,6.7595557E2,6.668959E3,1.933781E2,8.859766E0,3.39259E2,4.2808146E0,1.9608324E1,1.2048791E1,6.955101E2,1.4112405E2,2.7741913E2,3.0175485E2,3.5346768E2,1.3364403E1,1.6675739E2,8.9209585E0],"tree_param":{"num_deleted":"0","num_feature":"11","num_nodes":"83","size_leaf_vector":"1"}},{"base_weights":[8.912169E-1,9.917941E-1,-2.5092306E0,1.062784E0,3.307667E-1,-1.167722E0,-3.0933735E0,-1.5143125E-1,1.0646609E0,-1.9700557E0,8.377462E-1,2.759296E-1,-2.941022E0,-2.28196E0,-3.136137E0,9.393296E-1,1.0974237E0,-3.1726966E0,-1.1690887E0,-1.2207823E0,9.6490973E-1,-1.687995E-1,7.0303077E-1,-1.605938E-1,-1.565427E0,-8.575945E-1,-1.5401573E-1,-3.0862973E0,-3.4423022E0,1.0194274E0,3.4803528E-1,-1.2964082E-1,1.0976019E0,-3.0980706E0,-1.8893048E-1,-2.60202E0,-1.0951826E-1,-2.926726E0,-4.841072E-1,6.146609E-1,1.0063858E0,-2.610087E-1,7.591607E-1,5.31737E-2,-2.5844698E0,-2.5526485E0,5.595897E-1,-2.6431642E0,-3.1044495E0,-1.6208994E-1,-1.8671887E-1,5.153513E-2,-2.295131E-2,-1.6784757E-1,4.0182795E-2,5.5243004E-2,5.3386282E-2,-1.606559E-1,-1.3390575E-1,-1.7099895E-1,-2.1154238E-2,-1.6801848E-1,2.6819859E-2,-1.852341E-1,-9.911819E-3,8.432025E-3,-1.8550225E-1,3.8390804E-2,-2.0547418E-1,2.3158839E-2,5.0852854E-2,3.978607E-2,-2.00965E-1,-1.9677117E-2,-2.0117357E-1,-3.8065363E-2,-1.7507106E-1,-1.2723915E-1,4.4908144E-2,-1.5423529E-1,-5.3091783E-2,-1.5185067E-1,-1.6422243E-1],"categories":[],"categories_nodes":[],"categories_segments":[],"categories_sizes":[],"default_left":[0,0,0,0,0,0,0,0,0,0,0,0,0,0,0,0,0,0,0,0,0,0,0,0,0,0,0,0,0,0,0,0,0,0,0,0,0,0,0,0,0,0,0,0,0,0,0,0,0,0,0,0,0,0,0,0,0,0,0,0,0,0,0,0,0,0,0,0,0,0,0,0,0,0,0,0,0,0,0,0,0,0,0],"id":5,"left_children":[1,3,5,7,9,11,13,-1,15,17,19,21,23,25,27,29,31,33,35,37,39,-1,41,-1,43,45,-1,47,49,51,53,-1,55,57,-1,59,61,63,65,67,69,-1,71,-1,73,75,77,79,81,-1,-1,-1,-1,-1,-1,-1,-1,-1,-1,-1,-1,-1,-1,-1,-1,-1,-1,-1,-1,-1,-1,-1,-1,-1,-1,-1,-1,-1,-1,-1,-1,-1,-1],"loss_changes":[3.8583203E4,5.1411875E3,2.5361328E3,7.630469E2,1.2397762E4,2.5218066E3,7.116406E1,0E0,4.050625E2,1.844937E3,2.2809053E3,8.5047504E2,1.5965747E2,1.3003766E2,2.2054688E1,9.706328E2,5.4398438E1,2.295752E1,1.751087E3,6.3590094E2,1.1854248E2,0E0,1.6608815E2,0E0,2.0277196E2,1.0542917E2,0E0,6.685547E0,4.9436035E0,3.0145117E2,4.1340625E3,0E0,1.5828125E1,2.4640137E1,0E0,8.724387E2,1.3964647E3,3.2349304E2,7.489544E2,6.3340796E2,4.2035156E1,0E0,8.774356E1,0E0,1.6897626E2,3.1145767E1,2.7931255E1,5.2293213E1,1.1544922E1,0E0,0E0,0E0,0E0,0E0,0E0,0E0,0E0,0E0,0E0,0E0,0E0,0E0,0E0,0E0,0E0,0E0,0E0,0E0,0E0,0E0,0E0,0E0,0E0,0E0,0E0,0E0,0E0,0E0,0E0,0E0,0E0,0E0,0E0],"parents":[2147483647,0,0,1,1,2,2,3,3,4,4,5,5,6,6,8,8,9,9,10,10,11,11,12,12,13,13,14,14,15,15,16,16,17,17,18,18,19,19,20,20,22,22,24,24,25,25,27,27,28,28,29,29,30,30,32,32,33,33,35,35,36,36,37,37,38,38,39,39,40,40,42,42,44,44,45,45,46,46,47,47,48,48],"right_children":[2,4,6,8,10,12,14,-1,16,18,20,22,24,26,28,30,32,34,36,38,40,-1,42,-1,44,46,-1,48,50,52,54,-1,56,58,-1,60,62,64,66,68,70,-1,72,-1,74,76,78,80,82,-1,-1,-1,-1,-1,-1,-1,-1,-1,-1,-1,-1,-1,-1,-1,-1,-1,-1,-1,-1,-1,-1,-1,-1,-1,-1,-1,-1,-1,-1,-1,-1,-1,-1],"split_conditions":[-3.3166133E-2,-7.280496E-1,1.581785E-1,2.485E1,-6.2125885E-1,-1.0129265E0,1.9342636E-1,-1.5143125E-1,-6.2125885E-1,1.5468436E-2,6.894E1,7.088E1,-6.2125885E-1,-9.463749E-1,7.859924E1,-1.2567651E0,5.118E1,8.131E1,2.3185705E1,1.0128318E1,7.504E1,-1.687995E-1,2.2139306E0,-1.605938E-1,1.5224469E0,-1.2321304E0,-1.5401573E-1,2.286739E-1,-6.2125885E-1,1.5492684E0,-6.4099205E-1,-1.2964082E-1,-1.2567651E0,-3.8096324E-1,-1.8893048E-1,8.4055145E1,4.048266E1,6.777E1,1.4E-1,1.5224469E0,-1.4944488E0,-2.610087E-1,1.1826997E0,5.31737E-2,-2.9539035E-3,5.4932985E0,-7.655777E-1,7.088E1,-6.2125885E-1,-1.6208994E-1,-1.8671887E-1,5.153513E-2,-2.295131E-2,-1.6784757E-1,4.0182795E-2,5.5243004E-2,5.3386282E-2,-1.606559E-1,-1.3390575E-1,-1.7099895E-1,-2.1154238E-2,-1.6801848E-1,2.6819859E-2,-1.852341E-1,-9.911819E-3,8.432025E-3,-1.8550225E-1,3.8390804E-2,-2.0547418E-1,2.3158839E-2,5.0852854E-2,3.978607E-2,-2.00965E-1,-1.9677117E-2,-2.0117357E-1,-3.8065363E-2,-1.7507106E-1,-1.2723915E-1,4.4908144E-2,-1.5423529E-1,-5.3091783E-2,-1.5185067E-1,-1.6422243E-1],"split_indices":[4,4,4,1,8,5,4,0,8,10,1,1,8,5,1,4,1,1,0,0,1,0,0,0,5,5,0,4,8,10,7,0,4,10,0,1,1,1,2,5,10,0,10,0,4,0,10,1,8,0,0,0,0,0,0,0,0,0,0,0,0,0,0,0,0,0,0,0,0,0,0,0,0,0,0,0,0,0,0,0,0,0,0],"split_type":[0,0,0,0,0,0,0,0,0,0,0,0,0,0,0,0,0,0,0,0,0,0,0,0,0,0,0,0,0,0,0,0,0,0,0,0,0,0,0,0,0,0,0,0,0,0,0,0,0,0,0,0,0,0,0,0,0,0,0,0,0,0,0,0,0,0,0,0,0,0,0,0,0,0,0,0,0,0,0,0,0,0,0],"sum_hessian":[1.12805555E5,1.0956557E5,3.2399849E3,9.893954E4,1.0626031E4,9.837533E2,2.2562314E3,4.4630543E1,9.8894914E4,1.9181257E3,8.707905E3,5.427458E2,4.4100748E2,1.1567732E2,2.1405542E3,2.050069E4,7.839422E4,7.6561084E2,1.1525149E3,5.061254E2,8.20178E3,5.6106224E1,4.866396E2,3.6734296E2,7.366452E1,4.2293884E1,7.3383446E1,1.850412E3,2.9014215E2,1.8054299E4,2.4463916E3,3.0832877E0,7.839114E4,6.8709894E2,7.8511894E1,4.8931894E2,6.63196E2,1.5174693E2,3.5437848E2,8.700838E2,7.331697E3,3.7045963E0,4.82935E2,2.0565796E1,5.3098724E1,1.8894041E1,2.3399841E1,7.8585945E1,1.771826E3,1.7921439E2,1.1092777E2,1.7917953E4,1.363457E2,2.672026E2,2.179189E3,6.304007E4,1.5351069E4,5.341239E2,1.5297504E2,3.553523E2,1.3396666E2,1.0923263E2,5.539634E2,1.1780128E2,3.3945663E1,2.95528E2,5.8850464E1,8.435729E2,2.6510872E1,1.4211177E2,7.189585E3,4.8009518E2,2.8398006E0,2.155461E1,3.1544115E1,7.1662087E0,1.1727832E1,1.6603076E0,2.1739534E1,6.0689423E1,1.7896523E1,1.3019315E3,4.6989453E2],"tree_param":{"num_deleted":"0","num_feature":"11","num_nodes":"83","size_leaf_vector":"1"}},{"base_weights":[8.816121E-1,-2.6657538E0,1.0279671E0,-1.0868367E0,-2.8948536E0,1.045675E0,-2.895227E0,-2.0037185E-1,2.0853025E-1,-2.7860818E0,-3.1709757E0,2.7146006E-1,1.0583483E0,-1.5081418E0,-3.1107867E0,-2.460386E-1,4.32611E-1,-3.049245E0,-1.369938E-1,-2.2431006E0,-3.302423E0,-3.132958E0,8.350192E-1,1.0664555E0,3.3151406E-1,7.707203E-2,-1.5442543E-1,-2.9365728E0,-1.6998714E-1,5.8877075E-1,-2.7764508E-1,-1.4450957E-1,-3.2810292E0,-3.2544608E0,-8.2912125E-2,-3.8391268E0,-1.4749771E-1,-1.9840036E-1,-1.4873047E-1,8.827124E-1,-2.6449978E-1,9.5373166E-1,1.0949541E0,-3.3239522E0,8.433255E-1,-1.8466365E-1,9.138411E-1,-1.3987319E-1,-1.6593978E-1,-2.5351346E-1,3.168372E-2,-1.7948699E-1,-1.5228479E-1,-1.838529E-1,-1.4672415E-1,4.269795E-2,-1.6420566E-1,-6.388401E-2,-1.9469276E-1,-2.1278286E-1,4.525858E-2,-1.7063884E-1,4.856653E-2,5.4887515E-2,5.2122917E-2,-7.059144E-2,-1.820358E-1,4.391826E-2,-2.8391477E-1,2.6234223E-2,5.3556737E-2],"categories":[],"categories_nodes":[],"categories_segments":[],"categories_sizes":[],"default_left":[0,0,0,0,0,0,0,0,0,0,0,0,0,0,0,0,0,0,0,0,0,0,0,0,0,0,0,0,0,0,0,0,0,0,0,0,0,0,0,0,0,0,0,0,0,0,0,0,0,0,0,0,0,0,0,0,0,0,0,0,0,0,0,0,0,0,0,0,0,0,0],"id":6,"left_children":[1,3,5,7,9,11,13,-1,15,17,19,21,23,25,27,-1,29,31,-1,33,35,37,39,41,43,45,-1,47,-1,49,-1,-1,51,53,55,57,-1,-1,-1,59,-1,61,63,65,67,-1,69,-1,-1,-1,-1,-1,-1,-1,-1,-1,-1,-1,-1,-1,-1,-1,-1,-1,-1,-1,-1,-1,-1,-1,-1],"loss_changes":[5.627786E4,1.5505215E3,7.2349688E3,2.0659163E3,1.0380078E2,1.01652344E3,1.3524683E2,0E0,4.3784143E2,2.4460938E1,1.2097363E2,3.2074172E3,6.004922E2,1.6280453E2,1.0360352E1,0E0,3.43627E2,5.0498047E0,0E0,2.918938E2,1.6268652E2,1.9594482E1,4.235556E2,3.2289062E2,2.1098481E3,1.086592E2,0E0,4.5114746E0,0E0,9.36214E1,0E0,0E0,1.8432617E-1,1.5229492E0,1.337777E2,4.567578E1,0E0,0E0,0E0,1.6815466E2,0E0,1.5676582E3,1.065625E1,7.87605E1,2.309195E2,0E0,1.158783E0,0E0,0E0,0E0,0E0,0E0,0E0,0E0,0E0,0E0,0E0,0E0,0E0,0E0,0E0,0E0,0E0,0E0,0E0,0E0,0E0,0E0,0E0,0E0,0E0],"parents":[2147483647,0,0,1,1,2,2,3,3,4,4,5,5,6,6,8,8,9,9,10,10,11,11,12,12,13,13,14,14,16,16,17,17,19,19,20,20,21,21,22,22,23,23,24,24,25,25,27,27,29,29,32,32,33,33,34,34,35,35,39,39,41,41,42,42,43,43,44,44,46,46],"right_children":[2,4,6,8,10,12,14,-1,16,18,20,22,24,26,28,-1,30,32,-1,34,36,38,40,42,44,46,-1,48,-1,50,-1,-1,52,54,56,58,-1,-1,-1,60,-1,62,64,66,68,-1,70,-1,-1,-1,-1,-1,-1,-1,-1,-1,-1,-1,-1,-1,-1,-1,-1,-1,-1,-1,-1,-1,-1,-1,-1],"split_conditions":[2.1306875E-1,-8.539342E-1,1.7328477E-1,-6.2125885E-1,-6.2125885E-1,8.6120147E-1,2.286739E-1,-2.0037185E-1,-1.2075219E0,-4.9642175E-1,1.284227E0,-6.2125885E-1,-1.2883845E-1,-9.463749E-1,1.1618196E0,-2.460386E-1,-3.6053646E-1,-6.4099205E-1,-1.369938E-1,5.5502385E-2,-2.9539035E-3,-8.337927E-1,1.9944292E1,-6.2125885E-1,-6.2125885E-1,-1.2321304E0,-1.5442543E-1,-6.2125885E-1,-1.6998714E-1,-1.4239886E0,-2.7764508E-1,-1.4450957E-1,-6.5755415E-1,1.2152363E-2,-5.2159864E-1,-8.337927E-1,-1.4749771E-1,-1.9840036E-1,-1.4873047E-1,-1.384162E0,-2.6449978E-1,1.1316473E0,-5.3166944E-1,-1.384162E0,1.527078E0,-1.8466365E-1,1.3204187E0,-1.3987319E-1,-1.6593978E-1,-2.5351346E-1,3.168372E-2,-1.7948699E-1,-1.5228479E-1,-1.838529E-1,-1.4672415E-1,4.269795E-2,-1.6420566E-1,-6.388401E-2,-1.9469276E-1,-2.1278286E-1,4.525858E-2,-1.7063884E-1,4.856653E-2,5.4887515E-2,5.2122917E-2,-7.059144E-2,-1.820358E-1,4.391826E-2,-2.8391477E-1,2.6234223E-2,5.3556737E-2],"split_indices":[3,4,4,8,8,3,4,0,9,4,0,8,4,5,3,0,6,7,0,3,4,4,0,8,8,5,0,8,0,4,0,0,4,4,4,4,0,0,0,9,0,3,4,9,5,0,3,0,0,0,0,0,0,0,0,0,0,0,0,0,0,0,0,0,0,0,0,0,0,0,0],"split_type":[0,0,0,0,0,0,0,0,0,0,0,0,0,0,0,0,0,0,0,0,0,0,0,0,0,0,0,0,0,0,0,0,0,0,0,0,0,0,0,0,0,0,0,0,0,0,0,0,0,0,0,0,0,0,0,0,0,0,0,0,0,0,0,0,0,0,0,0,0,0,0],"sum_hessian":[1.0839242E5,4.2941113E3,1.0409831E5,5.448485E2,3.7492627E3,1.0363129E5,4.6702188E2,1.6676285E2,3.7808566E2,2.6976687E3,1.0515941E3,1.6693932E3,1.019619E5,6.3891125E1,4.0313077E2,1.4948494E1,3.6313715E2,3.9320355E2,2.304465E3,1.3272992E2,9.188642E2,2.3645105E2,1.4329421E3,1.0083668E5,1.1252142E3,3.2371536E1,3.1519588E1,2.5846378E2,1.4466699E2,3.5478265E2,8.354509E0,2.41175E2,1.5202856E2,9.005927E1,4.267065E1,3.603171E2,5.585471E2,3.3855534E1,2.0259552E2,1.4227198E3,1.0222317E1,2.0355805E4,8.0480875E4,1.3752032E2,9.87694E2,5.259474E0,2.7112062E1,1.9559612E2,6.2867657E1,1.9119532E0,3.528707E2,5.95963E1,9.243227E1,3.4285976E1,5.5773296E1,3.3577126E1,9.093524E0,8.046824E0,3.5227026E2,5.371227E0,1.4173486E3,8.093913E1,2.0274865E4,7.639203E4,4.08885E3,2.031958E1,1.17200745E2,9.832763E2,4.417679E0,9.052117E0,1.8059944E1],"tree_param":{"num_deleted":"0","num_feature":"11","num_nodes":"71","size_leaf_vector":"1"}},{"base_weights":[8.7165564E-1,-1.750797E0,9.0019995E-1,-1.2082893E-1,-7.8467786E-1,6.3276887E-1,9.9555117E-1,-2.1233301E-1,-2.7293918E0,1.9912343E-1,8.778777E-1,1.0051358E0,-1.3113222E0,-2.5785391E0,1.7687874E-1,-1.4386645E-1,-1.1670995E0,-1.2572274E-1,3.2600102E-1,-1.3979001E0,8.997605E-1,1.0621953E0,9.18523E-1,-3.8952073E-1,-3.514015E0,-1.4602748E-1,-6.181235E-1,3.9436856E-1,-1.4116982E-1,-1.2406371E-1,1.0830088E-1,7.700705E-1,-2.2385839E-1,-2.0415237E0,7.8047854E-1,9.2503273E-1,-1.0596385E0,9.530446E-1,1.06972E0,9.396889E-1,-6.0214734E-1,-3.4024708E0,5.4990274E-1,-1.4572804E-1,-1.9876789E-1,4.4477727E-2,-1.0369104E-1,-1.0688879E-1,3.3387523E-2,4.4477727E-2,-7.8368895E-2,3.98301E-2,-1.2223166E-1,-1.05359256E-1,-3.294846E-4,-6.677136E-3,-1.2548338E-1,5.0345402E-2,2.1570378E-3,2.0050695E-2,4.8180457E-2,7.1588713E-3,-1.266718E-1,4.0965892E-2,5.1268727E-2,5.3492475E-2,-9.956896E-2,3.8726743E-2,5.1966663E-2,-1.0976072E-1,1.6070845E-2,-1.352959E-1,-1.9113299E-1,-1.3211095E-1,4.454299E-2],"categories":[],"categories_nodes":[],"categories_segments":[],"categories_sizes":[],"default_left":[0,0,0,0,0,0,0,0,0,0,0,0,0,0,0,0,0,0,0,0,0,0,0,0,0,0,0,0,0,0,0,0,0,0,0,0,0,0,0,0,0,0,0,0,0,0,0,0,0,0,0,0,0,0,0,0,0,0,0,0,0,0,0,0,0,0,0,0,0,0,0,0,0,0,0],"id":7,"left_children":[1,3,5,-1,7,9,11,13,15,17,19,21,23,25,27,-1,29,-1,31,33,35,37,39,41,43,-1,45,47,-1,-1,49,51,53,55,57,59,61,63,65,67,69,71,73,-1,-1,-1,-1,-1,-1,-1,-1,-1,-1,-1,-1,-1,-1,-1,-1,-1,-1,-1,-1,-1,-1,-1,-1,-1,-1,-1,-1,-1,-1,-1,-1],"loss_changes":[7.825547E3,7.2221216E2,2.6359453E3,0E0,5.122708E2,2.8886318E3,1.6865078E3,3.2930692E2,2.083722E1,3.3803447E3,8.659707E2,3.7414844E2,6.398318E2,3.2055603E1,2.0181416E2,0E0,1.8266619E1,0E0,2.2901243E3,2.3399979E2,8.526387E2,3.6558594E1,9.7106055E2,6.351842E2,1.4144653E1,0E0,2.1093056E1,2.0055931E2,0E0,0E0,9.78259E0,4.4447632E2,1.7148215E3,1.1420294E2,6.3891964E0,3.428672E2,3.894212E2,2.7788574E1,1.9097656E1,4.885957E2,6.1060767E2,5.2625732E0,1.8893365E2,0E0,0E0,0E0,0E0,0E0,0E0,0E0,0E0,0E0,0E0,0E0,0E0,0E0,0E0,0E0,0E0,0E0,0E0,0E0,0E0,0E0,0E0,0E0,0E0,0E0,0E0,0E0,0E0,0E0,0E0,0E0,0E0],"parents":[2147483647,0,0,1,1,2,2,4,4,5,5,6,6,7,7,8,8,9,9,10,10,11,11,12,12,13,13,14,14,16,16,18,18,19,19,20,20,21,21,22,22,23,23,24,24,26,26,27,27,30,30,31,31,32,32,33,33,34,34,35,35,36,36,37,37,38,38,39,39,40,40,41,41,42,42],"right_children":[2,4,6,-1,8,10,12,14,16,18,20,22,24,26,28,-1,30,-1,32,34,36,38,40,42,44,-1,46,48,-1,-1,50,52,54,56,58,60,62,64,66,68,70,72,74,-1,-1,-1,-1,-1,-1,-1,-1,-1,-1,-1,-1,-1,-1,-1,-1,-1,-1,-1,-1,-1,-1,-1,-1,-1,-1,-1,-1,-1,-1,-1,-1],"split_conditions":[2.923E1,2.485E1,7.139E1,-1.2082893E-1,6.563582E-1,-6.4099205E-1,8.140839E-1,1.9914791E-1,2.7163022E0,5.379E1,-1.4944488E0,-1.0915997E0,2.63E-1,1.1826997E0,1.0439402E0,-1.4386645E-1,9.6780926E-1,-1.2572274E-1,-1.0915997E0,6.185E1,1.5492684E0,-1.6593292E0,1.5492684E0,3.14802E1,7.939E1,-1.4602748E-1,1.5074495E0,-3.4500194E-1,-1.4116982E-1,-1.2406371E-1,1.0439402E0,1.419784E0,-1.2075219E0,-1.3150804E0,1.3E-1,-1.2075219E0,-1.2075219E0,8.493932E1,3.19E-1,6.952704E-1,8.624857E1,7.926E1,8.306E1,-1.4572804E-1,-1.9876789E-1,4.4477727E-2,-1.0369104E-1,-1.0688879E-1,3.3387523E-2,4.4477727E-2,-7.8368895E-2,3.98301E-2,-1.2223166E-1,-1.05359256E-1,-3.294846E-4,-6.677136E-3,-1.2548338E-1,5.0345402E-2,2.1570378E-3,2.0050695E-2,4.8180457E-2,7.1588713E-3,-1.266718E-1,4.0965892E-2,5.1268727E-2,5.3492475E-2,-9.956896E-2,3.8726743E-2,5.1966663E-2,-1.0976072E-1,1.6070845E-2,-1.352959E-1,-1.9113299E-1,-1.3211095E-1,4.454299E-2],"split_indices":[1,1,1,0,9,7,6,2,6,1,10,5,2,10,5,0,5,0,5,1,10,5,10,0,1,0,10,5,0,0,5,9,9,9,2,9,9,1,2,5,1,1,1,0,0,0,0,0,0,0,0,0,0,0,0,0,0,0,0,0,0,0,0,0,0,0,0,0,0,0,0,0,0,0,0],"split_type":[0,0,0,0,0,0,0,0,0,0,0,0,0,0,0,0,0,0,0,0,0,0,0,0,0,0,0,0,0,0,0,0,0,0,0,0,0,0,0,0,0,0,0,0,0,0,0,0,0,0,0,0,0,0,0,0,0,0,0,0,0,0,0,0,0,0,0,0,0,0,0,0,0,0,0],"sum_hessian":[1.0451908E5,1.1247478E3,1.0339433E5,6.649852E2,4.5976257E2,2.7177453E4,7.6216875E4,3.560758E2,1.0368677E2,9.814861E3,1.7362592E4,7.5902086E4,3.1479303E2,4.950231E1,3.065735E2,9.39488E1,9.7379675E0,4.3757013E2,9.377292E3,1.6476118E2,1.719783E4,4.5750727E4,3.0151357E4,2.2275111E2,9.204193E1,4.173206E1,7.770254E0,2.8666193E2,1.9911558E1,4.330415E0,5.4075527E0,5.1874653E3,4.189826E3,1.2723204E2,3.752914E1,1.697936E4,2.1847136E2,2.9588267E3,4.27919E4,2.9737826E4,4.1353287E2,5.2321617E1,1.7042949E2,4.321163E1,4.8830296E1,4.0080247E0,3.7622297E0,2.726896E1,2.5939297E2,4.0080247E0,1.3995283E0,5.145749E3,4.1716564E1,4.3246222E2,3.7573638E3,2.532047E1,1.0191157E2,2.8432259E1,9.096881E0,1.1650315E3,1.5814327E4,1.20791885E2,9.7679474E1,1.0429332E3,1.9158934E3,4.279074E4,1.1600963E0,1.1193723E4,1.8544104E4,1.5125479E2,2.6227808E2,2.2486015E1,2.9835602E1,1.579582E1,1.5463368E2],"tree_param":{"num_deleted":"0","num_feature":"11","num_nodes":"75","size_leaf_vector":"1"}},{"base_weights":[8.615352E-1,-2.3774936E0,1.0127462E0,-1.5958525E0,-2.5541666E0,-6.4546242E-3,1.0348775E0,-2.758431E0,-2.6930106E-1,-3.1477215E0,-2.476923E0,-2.7322633E0,7.043541E-1,8.6524934E-1,1.0774782E0,-1.2281996E-1,-1.4471953E-1,8.892602E-2,-3.2607994E0,-2.968319E0,-2.0520936E-1,5.0665606E-2,-2.4893882E0,-1.3088231E-1,-1.4483963E-1,7.6172924E-1,-1.8457125E-1,-1.648357E0,9.0834546E-1,9.9388087E-1,1.0806082E0,-2.7280364E0,4.2265692E-1,-1.3264273E-1,-1.8622164E-1,-1.4180836E-1,-1.6015683E-1,-2.5294917E0,-1.7069055E0,-1.7239837E-1,7.943893E-1,-3.2223454E0,-5.150605E-1,3.978169E-1,1.0079037E0,1.0064443E0,1.8174331E-1,1.0816323E0,1.0200108E0,-2.7575424E-2,-1.8458493E-1,-1.5480733E-1,2.8618583E-2,-1.22729935E-1,-1.3067617E-1,5.3687837E-2,-1.1923009E-1,-9.663995E-2,4.1628104E-2,-1.3955761E-1,-2.1014062E-1,-1.4273188E-1,1.24635305E-2,2.2852672E-2,-2.0704284E-1,-2.1926191E-1,5.045383E-2,1.647012E-2,5.0823744E-2,-2.9373562E-1,5.108546E-2,5.1465143E-2,5.414101E-2,5.12653E-2,-1.6968654E-2],"categories":[],"categories_nodes":[],"categories_segments":[],"categories_sizes":[],"default_left":[0,0,0,0,0,0,0,0,0,0,0,0,0,0,0,0,0,0,0,0,0,0,0,0,0,0,0,0,0,0,0,0,0,0,0,0,0,0,0,0,0,0,0,0,0,0,0,0,0,0,0,0,0,0,0,0,0,0,0,0,0,0,0,0,0,0,0,0,0,0,0,0,0,0,0],"id":8,"left_children":[1,3,5,7,9,11,13,15,17,19,21,23,25,27,29,-1,-1,31,33,35,-1,-1,37,-1,-1,39,-1,41,43,45,47,49,51,-1,-1,-1,-1,53,55,-1,57,59,61,63,65,67,69,71,73,-1,-1,-1,-1,-1,-1,-1,-1,-1,-1,-1,-1,-1,-1,-1,-1,-1,-1,-1,-1,-1,-1,-1,-1,-1,-1],"loss_changes":[4.944507E4,6.177422E2,2.1755E3,1.283615E3,1.6051367E2,3.9753713E3,6.8121875E2,1.1111572E1,4.1831012E2,5.9720215E1,1.4404883E2,4.2016602E-1,4.1325702E2,2.054666E3,1.8664062E1,0E0,0E0,3.29565E2,1.8852234E0,1.9770508E0,0E0,0E0,9.74082E1,0E0,0E0,2.237204E2,0E0,5.688658E2,9.46749E2,2.772705E1,3.4140625E0,7.585593E1,1.6677002E2,0E0,0E0,0E0,0E0,1.2978516E1,3.06178E2,0E0,1.6772894E2,4.479248E1,3.3535895E2,8.199083E2,1.0306348E2,1.7957031E1,2.2419832E2,3.328125E0,9.171997E0,0E0,0E0,0E0,0E0,0E0,0E0,0E0,0E0,0E0,0E0,0E0,0E0,0E0,0E0,0E0,0E0,0E0,0E0,0E0,0E0,0E0,0E0,0E0,0E0,0E0,0E0],"parents":[2147483647,0,0,1,1,2,2,3,3,4,4,5,5,6,6,7,7,8,8,9,9,10,10,11,11,12,12,13,13,14,14,17,17,18,18,19,19,22,22,25,25,27,27,28,28,29,29,30,30,31,31,32,32,37,37,38,38,40,40,41,41,42,42,43,43,44,44,45,45,46,46,47,47,48,48],"right_children":[2,4,6,8,10,12,14,16,18,20,22,24,26,28,30,-1,-1,32,34,36,-1,-1,38,-1,-1,40,-1,42,44,46,48,50,52,-1,-1,-1,-1,54,56,-1,58,60,62,64,66,68,70,72,74,-1,-1,-1,-1,-1,-1,-1,-1,-1,-1,-1,-1,-1,-1,-1,-1,-1,-1,-1,-1,-1,-1,-1,-1,-1,-1],"split_conditions":[2.1306875E-1,7.2138977E0,8.902691E-1,-2.5627792E-1,-1.2321304E0,-6.2125885E-1,-6.2125885E-1,-6.2125885E-1,-8.5133785E-1,-1.3223629E-1,-1.0915997E0,-6.4099205E-1,1.9944292E1,1.1953443E0,1.1618196E0,-1.2281996E-1,-1.4471953E-1,1.0868179E-2,-6.2125885E-1,-4.8424634E-1,-2.0520936E-1,5.0665606E-2,1.527078E0,-1.3088231E-1,-1.4483963E-1,-1.384162E0,-1.8457125E-1,2.26E-1,-6.4099205E-1,2.0414007E1,1.419784E0,-1.5615395E0,-1.2075219E0,-1.3264273E-1,-1.8622164E-1,-1.4180836E-1,-1.6015683E-1,-4.8424634E-1,1.6676718E0,-1.7239837E-1,-1.6593292E0,1.1316473E0,1.1316473E0,1.419784E0,3.57369E-2,-1.6593292E0,3.14802E1,-1.384162E0,2.3049568E-1,-2.7575424E-2,-1.8458493E-1,-1.5480733E-1,2.8618583E-2,-1.22729935E-1,-1.3067617E-1,5.3687837E-2,-1.1923009E-1,-9.663995E-2,4.1628104E-2,-1.3955761E-1,-2.1014062E-1,-1.4273188E-1,1.24635305E-2,2.2852672E-2,-2.0704284E-1,-2.1926191E-1,5.045383E-2,1.647012E-2,5.0823744E-2,-2.9373562E-1,5.108546E-2,5.1465143E-2,5.414101E-2,5.12653E-2,-1.6968654E-2],"split_indices":[3,0,3,3,5,8,8,8,6,3,5,7,0,3,3,0,0,2,8,3,0,0,5,0,0,9,0,2,7,0,9,6,9,0,0,0,0,3,5,0,5,3,3,9,2,5,0,9,2,0,0,0,0,0,0,0,0,0,0,0,0,0,0,0,0,0,0,0,0,0,0,0,0,0,0],"split_type":[0,0,0,0,0,0,0,0,0,0,0,0,0,0,0,0,0,0,0,0,0,0,0,0,0,0,0,0,0,0,0,0,0,0,0,0,0,0,0,0,0,0,0,0,0,0,0,0,0,0,0,0,0,0,0,0,0,0,0,0,0,0,0,0,0,0,0,0,0,0,0,0,0,0,0],"sum_hessian":[1.0094835E5,4.5018286E3,9.644652E4,8.3179816E2,3.6700305E3,2.049781E3,9.439674E4,4.4272147E2,3.8907672E2,4.1803223E2,3.2519983E3,4.2337582E2,1.6264052E3,1.8952504E4,7.5444234E4,1.4334651E2,2.9937494E2,3.483345E2,4.074222E1,3.5546225E2,6.2569984E1,1.1287222E1,3.240711E3,2.595049E2,1.6387093E2,1.6062664E3,2.013879E1,3.1883795E2,1.8633666E4,2.7343855E3,7.270985E4,3.6136707E1,3.121978E2,2.0536016E1,2.0206203E1,2.3582274E2,1.196395E2,3.0805933E3,1.6011775E2,1.1560898E1,1.5947054E3,1.3269713E2,1.8614082E2,3.0415862E3,1.5592079E4,2.6924944E3,4.1891052E1,7.148497E4,1.2248788E3,1.1572148E1,2.456456E1,1.193784E1,3.0025995E2,1.6448429E3,1.4357504E3,3.1261988E1,1.2885576E2,2.1328003E1,1.5733774E3,9.483641E1,3.786072E1,4.5163357E1,1.4097746E2,3.003288E3,3.8298157E1,2.5775883E0,1.5589501E4,3.980191E1,2.6526926E3,4.3721676E0,3.7518883E1,1.6059708E3,6.9879E4,1.2203708E3,4.5079384E0],"tree_param":{"num_deleted":"0","num_feature":"11","num_nodes":"75","size_leaf_vector":"1"}},{"base_weights":[8.515533E-1,-2.2122886E0,1.004765E0,-9.0085155E-1,-2.3955588E0,1.0247483E0,-2.5176058E0,-1.5767519E-1,2.01183E-1,-2.307648E0,-2.6165829E0,1.0356079E0,1.07957244E-1,-1.4030979E0,-2.7362695E0,-2.140557E-1,4.884036E-1,-1.2485104E-1,-1.1378695E-1,-2.06688E0,-2.7116742E0,4.0148205E-1,1.0460237E0,-2.8764408E0,7.331572E-1,-8.834472E-2,-1.3731466E-1,-2.5392637E0,-1.5612814E-1,-2.7655494E-1,5.9783894E-1,-2.6877198E0,-8.5594915E-2,-3.065763E0,-1.2348956E-1,-2.6632845E0,8.666357E-1,9.1994727E-1,1.0779116E0,-1.17276266E-1,-3.1934826E0,7.8434217E-1,-2.5530103E-1,-1.8744968E-1,4.9787387E-1,-1.18086696E-1,-1.5281412E-1,3.6227442E-2,-2.034122E-1,-1.5215327E-1,-1.2275358E-1,3.404499E-2,-1.6384213E-1,-4.6666097E-2,-1.5539315E-1,-1.5680054E-1,-1.266567E-1,-2.3922423E-1,4.5741633E-2,-7.1359925E-2,4.748586E-2,5.403895E-2,5.0995838E-2,-1.07938826E-1,-1.6911717E-1,4.0678483E-2,-2.8076118E-1,-1.3751434E-1,3.6051285E-2],"categories":[],"categories_nodes":[],"categories_segments":[],"categories_sizes":[],"default_left":[0,0,0,0,0,0,0,0,0,0,0,0,0,0,0,0,0,0,0,0,0,0,0,0,0,0,0,0,0,0,0,0,0,0,0,0,0,0,0,0,0,0,0,0,0,0,0,0,0,0,0,0,0,0,0,0,0,0,0,0,0,0,0,0,0,0,0,0,0],"id":9,"left_children":[1,3,5,7,9,11,13,-1,15,17,19,21,23,25,27,-1,29,-1,-1,31,33,35,37,39,41,43,-1,45,-1,-1,47,49,51,53,-1,55,57,59,61,-1,63,65,-1,-1,67,-1,-1,-1,-1,-1,-1,-1,-1,-1,-1,-1,-1,-1,-1,-1,-1,-1,-1,-1,-1,-1,-1,-1,-1],"loss_changes":[4.558215E4,1.1093633E3,6.5118203E3,1.4122921E3,7.2791016E1,9.153828E2,1.23365234E2,0E0,4.948859E2,1.1907227E1,5.4351562E1,5.998203E2,2.0127144E3,1.5457014E2,2.5198242E1,0E0,2.4086858E2,0E0,0E0,2.1301245E2,7.590381E1,2.0982134E3,3.5845312E2,2.395996E1,2.705259E2,9.915164E1,0E0,1.973352E1,0E0,0E0,2.1289095E2,3.4385986E0,1.0593159E2,3.2239502E1,0E0,3.9908447E0,3.5225073E2,1.2629746E3,1.0765625E1,0E0,1.5018555E1,1.7007465E2,0E0,0E0,3.094698E1,0E0,0E0,0E0,0E0,0E0,0E0,0E0,0E0,0E0,0E0,0E0,0E0,0E0,0E0,0E0,0E0,0E0,0E0,0E0,0E0,0E0,0E0,0E0,0E0],"parents":[2147483647,0,0,1,1,2,2,3,3,4,4,5,5,6,6,8,8,9,9,10,10,11,11,12,12,13,13,14,14,16,16,19,19,20,20,21,21,22,22,23,23,24,24,25,25,27,27,30,30,31,31,32,32,33,33,35,35,36,36,37,37,38,38,40,40,41,41,44,44],"right_children":[2,4,6,8,10,12,14,-1,16,18,20,22,24,26,28,-1,30,-1,-1,32,34,36,38,40,42,44,-1,46,-1,-1,48,50,52,54,-1,56,58,60,62,-1,64,66,-1,-1,68,-1,-1,-1,-1,-1,-1,-1,-1,-1,-1,-1,-1,-1,-1,-1,-1,-1,-1,-1,-1,-1,-1,-1,-1],"split_conditions":[2.1306875E-1,-8.539342E-1,1.581785E-1,-6.2125885E-1,-6.2125885E-1,-1.2883845E-1,2.286739E-1,-1.5767519E-1,-7.655777E-1,-5.0649256E-1,-1.392247E0,8.6120147E-1,-6.2125885E-1,-9.463749E-1,1.1953443E0,-2.140557E-1,3.2254387E-2,-1.2485104E-1,-1.1378695E-1,5.5502385E-2,-2.9539035E-3,-6.2125885E-1,-6.2125885E-1,1.1316473E0,1.527078E0,-1.3785162E0,-1.3731466E-1,-6.2125885E-1,-1.5612814E-1,-2.7655494E-1,-3.6053646E-1,-4.323708E-2,-1.414503E0,-8.337927E-1,-1.2348956E-1,-8.337927E-1,-1.1272556E0,1.1953443E0,-5.0649256E-1,-1.17276266E-1,-6.6515964E-1,1.2561641E0,-2.5530103E-1,-1.8744968E-1,-7.655777E-1,-1.18086696E-1,-1.5281412E-1,3.6227442E-2,-2.034122E-1,-1.5215327E-1,-1.2275358E-1,3.404499E-2,-1.6384213E-1,-4.6666097E-2,-1.5539315E-1,-1.5680054E-1,-1.266567E-1,-2.3922423E-1,4.5741633E-2,-7.1359925E-2,4.748586E-2,5.403895E-2,5.0995838E-2,-1.07938826E-1,-1.6911717E-1,4.0678483E-2,-2.8076118E-1,-1.3751434E-1,3.6051285E-2],"split_indices":[3,4,4,8,8,4,4,0,10,4,6,3,8,5,3,0,2,0,0,3,4,8,8,3,5,5,0,8,0,0,6,4,5,4,0,4,10,3,4,0,6,10,0,0,10,0,0,0,0,0,0,0,0,0,0,0,0,0,0,0,0,0,0,0,0,0,0,0,0],"split_type":[0,0,0,0,0,0,0,0,0,0,0,0,0,0,0,0,0,0,0,0,0,0,0,0,0,0,0,0,0,0,0,0,0,0,0,0,0,0,0,0,0,0,0,0,0,0,0,0,0,0,0,0,0,0,0,0,0,0,0,0,0,0,0,0,0,0,0,0,0],"sum_hessian":[9.709815E4,4.623645E3,9.247451E4,5.676435E2,4.0560015E3,9.195354E4,5.2096765E2,1.8586275E2,3.8178076E2,2.9100056E3,1.1459957E3,9.087695E4,1.0765841E3,8.666442E1,4.3430325E2,2.2153477E1,3.596273E2,4.0848474E2,2.501521E3,1.723593E2,9.736365E2,1.469205E3,8.940775E4,1.8584593E2,8.9073816E2,4.433449E1,4.232993E1,2.9263538E2,1.416679E2,5.5367293E0,3.5409055E2,1.3096468E2,4.139462E1,3.9042502E2,5.832115E2,1.9298108E2,1.2762239E3,1.8054545E4,7.13532E4,7.262574E1,1.1322019E2,8.8385614E2,6.8820157E0,5.375004E0,3.8959488E1,2.219812E2,7.065417E1,3.4555164E2,8.538912E0,4.7038387E1,8.392629E1,3.4012028E1,7.382595E0,8.007356E0,3.8241766E2,3.6675365E1,1.5630571E2,9.961525E0,1.2662623E3,2.2553818E2,1.7829008E4,6.797477E4,3.3784329E3,1.9394508E1,9.382569E1,8.807067E2,3.1494067E0,1.776488E0,3.7183E1],"tree_param":{"num_deleted":"0","num_feature":"11","num_nodes":"69","size_leaf_vector":"1"}},{"base_weights":[8.4200954E-1,3.189068E-1,9.9519694E-1,-7.803369E-1,6.694805E-1,-1.7462873E0,1.002987E0,-2.1072583E0,1.7024338E-1,-1.3760355E0,8.330678E-1,-1.0036098E-1,5.1628955E-2,6.512988E-1,1.0333263E0,-1.3040948E0,-2.230426E0,3.027724E-1,-2.31431E0,-1.9197747E0,-4.0453446E-1,8.6621237E-1,-3.0683672E-1,-1.7924737E0,7.452491E-1,9.532644E-1,1.0452461E0,-2.0527403E0,2.7352497E-1,-2.2881534E0,-1.7726163E0,-1.4919308E0,4.1349998E-1,-3.5553005E0,-1.4430689E0,-9.937053E-2,-1.1928008E0,6.4052895E-2,-1.1845448E-1,2.8185493E-1,9.109208E-1,-2.6536741E0,1.2381059E-1,-2.0081348E0,-4.449873E-1,-1.9708499E0,7.913909E-1,9.5700014E-1,-1.4087582E-1,9.402982E-1,1.0495769E0,-8.30213E-2,-1.0950848E-1,4.047128E-2,-1.3615654E-1,-1.1156092E-1,-1.4062785E-1,-1.1760344E-1,-1.5888785E-3,-4.7895614E-2,-1.866544E-1,2.3280075E-2,-1.498856E-1,-1.6048211E-1,-2.1963659E-1,2.2272442E-2,-1.6103648E-1,-1.088587E-1,7.835451E-3,1.4917502E-2,-1.1636857E-1,-6.0873862E-2,2.3943732E-2,4.645489E-2,-7.5318343E-3,-1.4020984E-1,-9.09613E-2,1.9800095E-2,-1.0060491E-1,-4.722063E-2,-1.1109885E-1,-1.1186891E-1,1.1693641E-2,-1.1039638E-1,1.3413349E-2,4.12327E-2,-9.171492E-2,4.8741233E-2,1.1406142E-2,3.8154118E-2,5.0053246E-2,5.260249E-2,4.5411684E-2],"categories":[],"categories_nodes":[],"categories_segments":[],"categories_sizes":[],"default_left":[0,0,0,0,0,0,0,0,0,0,0,0,0,0,0,0,0,0,0,0,0,0,0,0,0,0,0,0,0,0,0,0,0,0,0,0,0,0,0,0,0,0,0,0,0,0,0,0,0,0,0,0,0,0,0,0,0,0,0,0,0,0,0,0,0,0,0,0,0,0,0,0,0,0,0,0,0,0,0,0,0,0,0,0,0,0,0,0,0,0,0,0,0],"id":10,"left_children":[1,3,5,7,9,11,13,15,17,19,21,-1,-1,23,25,27,29,31,33,35,37,39,41,43,45,47,49,51,53,55,57,59,61,63,65,-1,67,69,-1,71,73,75,77,79,81,83,85,87,-1,89,91,-1,-1,-1,-1,-1,-1,-1,-1,-1,-1,-1,-1,-1,-1,-1,-1,-1,-1,-1,-1,-1,-1,-1,-1,-1,-1,-1,-1,-1,-1,-1,-1,-1,-1,-1,-1,-1,-1,-1,-1,-1,-1],"loss_changes":[7.4212344E3,8.085499E3,1.5316484E3,6.3998438E3,5.3241084E3,1.4951886E2,7.6153125E2,2.0657812E2,9.7432806E2,6.216775E2,5.5679297E2,0E0,0E0,1.3044543E3,6.1757812E1,3.3596198E2,4.4430664E1,5.586367E2,1.5688971E2,3.476416E1,3.9057608E2,3.737129E2,4.2171146E2,6.0254272E1,6.86635E2,1.2289844E2,2.5019531E1,6.753113E0,1.503865E2,4.2265625E1,2.1163531E2,1.9197937E2,4.7160178E2,3.5950317E0,3.026546E2,0E0,8.9060524E1,1.9310786E2,0E0,3.015265E2,2.5670508E2,3.0238953E0,2.0616664E2,3.9097107E1,3.741046E1,4.9217194E1,4.7102344E2,1.10538574E2,0E0,2.3762817E1,1.8253906E1,0E0,0E0,0E0,0E0,0E0,0E0,0E0,0E0,0E0,0E0,0E0,0E0,0E0,0E0,0E0,0E0,0E0,0E0,0E0,0E0,0E0,0E0,0E0,0E0,0E0,0E0,0E0,0E0,0E0,0E0,0E0,0E0,0E0,0E0,0E0,0E0,0E0,0E0,0E0,0E0,0E0,0E0],"parents":[2147483647,0,0,1,1,2,2,3,3,4,4,5,5,6,6,7,7,8,8,9,9,10,10,13,13,14,14,15,15,16,16,17,17,18,18,19,19,20,20,21,21,22,22,23,23,24,24,25,25,26,26,27,27,28,28,29,29,30,30,31,31,32,32,33,33,34,34,36,36,37,37,39,39,40,40,41,41,42,42,43,43,44,44,45,45,46,46,47,47,49,49,50,50],"right_children":[2,4,6,8,10,12,14,16,18,20,22,-1,-1,24,26,28,30,32,34,36,38,40,42,44,46,48,50,52,54,56,58,60,62,64,66,-1,68,70,-1,72,74,76,78,80,82,84,86,88,-1,90,92,-1,-1,-1,-1,-1,-1,-1,-1,-1,-1,-1,-1,-1,-1,-1,-1,-1,-1,-1,-1,-1,-1,-1,-1,-1,-1,-1,-1,-1,-1,-1,-1,-1,-1,-1,-1,-1,-1,-1,-1,-1,-1],"split_conditions":[-6.2125885E-1,-6.4099205E-1,5.379E1,7.973E1,2.923E1,-6.4099205E-1,6.919E1,8E0,2.4145107E-1,2.569E1,1.2319973E0,-1.0036098E-1,5.1628955E-2,-1.2075219E0,7.541E1,7.647E1,6.952704E-1,9.169924E0,3.364391E1,2.485E1,7.125855E-1,-1.2075219E0,3.737337E1,1.5942633E-1,1.0868179E-2,5.517089E-1,-1.6593292E0,-1.2075219E0,-1.0882906E0,7.647E1,7.69E1,6.9E-2,1.419784E0,9.112E1,3.5E1,-9.937053E-2,1.7651931E0,1.0439402E0,-1.1845448E-1,-3.4500194E-1,1.419784E0,4.9193905E1,4.85E1,2.5818088E0,-1.2321304E0,-1.8807006E-1,1.419784E0,1.6676718E0,-1.4087582E-1,8.475604E1,1.419784E0,-8.30213E-2,-1.0950848E-1,4.047128E-2,-1.3615654E-1,-1.1156092E-1,-1.4062785E-1,-1.1760344E-1,-1.5888785E-3,-4.7895614E-2,-1.866544E-1,2.3280075E-2,-1.498856E-1,-1.6048211E-1,-2.1963659E-1,2.2272442E-2,-1.6103648E-1,-1.088587E-1,7.835451E-3,1.4917502E-2,-1.1636857E-1,-6.0873862E-2,2.3943732E-2,4.645489E-2,-7.5318343E-3,-1.4020984E-1,-9.09613E-2,1.9800095E-2,-1.0060491E-1,-4.722063E-2,-1.1109885E-1,-1.1186891E-1,1.1693641E-2,-1.1039638E-1,1.3413349E-2,4.12327E-2,-9.171492E-2,4.8741233E-2,1.1406142E-2,3.8154118E-2,5.0053246E-2,5.260249E-2,4.5411684E-2],"split_indices":[8,7,1,1,1,7,1,0,2,1,5,0,0,9,1,1,5,0,0,1,9,9,1,6,2,6,5,9,9,1,1,2,9,1,0,0,6,5,0,5,9,0,1,0,5,6,9,5,0,1,9,0,0,0,0,0,0,0,0,0,0,0,0,0,0,0,0,0,0,0,0,0,0,0,0,0,0,0,0,0,0,0,0,0,0,0,0,0,0,0,0,0,0],"split_type":[0,0,0,0,0,0,0,0,0,0,0,0,0,0,0,0,0,0,0,0,0,0,0,0,0,0,0,0,0,0,0,0,0,0,0,0,0,0,0,0,0,0,0,0,0,0,0,0,0,0,0,0,0,0,0,0,0,0,0,0,0,0,0,0,0,0,0,0,0,0,0,0,0,0,0,0,0,0,0,0,0,0,0,0,0,0,0,0,0,0,0,0,0],"sum_hessian":[9.26148E4,2.0979002E4,7.16358E4,5.072539E3,1.5906463E4,2.0234732E2,7.1433445E4,2.116661E3,2.9558782E3,1.1773479E3,1.4729114E4,1.8523195E2,1.7115362E1,5.6747754E3,6.575867E4,2.8297824E2,1.8336827E3,2.8070264E3,1.4885197E2,7.5423444E2,4.231135E2,1.4313176E4,4.159387E2,2.0941925E2,5.465356E3,8.532128E3,5.7226547E4,1.917051E2,9.127313E1,1.6248057E3,2.0887708E2,1.623958E2,2.6446304E3,6.0126884E1,8.872508E1,6.8844885E2,6.578557E1,3.4240915E2,8.070432E1,1.017773E3,1.3295402E4,6.3690666E1,3.5224802E2,1.801039E2,2.931536E1,9.059919E1,5.374757E3,8.524429E3,7.6988673E0,2.276567E3,5.494998E4,5.3127037E1,1.3857806E2,7.804586E1,1.3227277E1,1.470416E3,1.5438971E2,1.5645021E2,5.242686E1,1.3229921E2,3.0096584E1,2.6056956E3,3.893486E1,4.5980625E1,1.414626E1,4.338449E1,4.5340588E1,3.7684242E1,2.8101328E1,3.1265262E2,2.9756552E1,1.1760583E2,9.001672E2,1.3071701E4,2.2370152E2,5.1957687E1,1.1732983E1,3.131554E2,3.909262E1,3.1052898E1,1.49051E2,7.422358E0,2.1893002E1,8.193758E1,8.661613E0,5.308197E3,6.656004E1,8.320613E3,2.0381537E2,5.8476245E2,1.6918044E3,5.3998793E4,9.511872E2],"tree_param":{"num_deleted":"0","num_feature":"11","num_nodes":"93","size_leaf_vector":"1"}},{"base_weights":[8.323275E-1,9.417031E-1,-1.8633096E0,1.0145416E0,2.1195972E-1,-1.0760933E0,-2.148439E0,8.440194E-1,1.060373E0,-1.5258261E0,7.400856E-1,6.857624E-2,-2.0525477E0,-2.3887055E0,-2.1007917E0,9.1872495E-1,-3.908659E-1,1.0675819E0,9.700293E-1,-2.2565026E0,-9.660743E-1,7.721133E-1,-6.3695556E-1,-1.9718777E0,2.940512E-1,-1.1023741E-1,-1.217862E0,-1.5925202E0,-1.20376885E-1,5.1949877E-2,-2.1276016E0,4.9999508E-1,1.006101E0,-2.2593274E0,2.321293E-1,1.0747552E0,1.0467188E0,1.8262802E-1,9.833036E-1,-2.2040515E0,-1.256384E-1,-1.8502597E0,-1.5436698E-1,7.857416E-1,-2.1128368E0,-6.832324E-2,-1.8227725E-1,-6.005337E-1,-1.6676275E-1,5.480905E-1,-1.7277805E0,-1.6230492E-1,-3.3995527E-1,-2.2960868E-1,-1.3509236E-1,-2.1002717E0,-1.1843254E-1,3.772178E-2,-9.5760375E-2,-2.0981608E-2,5.0751653E-2,-9.352623E-2,-1.3000147E-1,-7.621811E-2,2.7214754E-2,5.184501E-2,5.3787794E-2,5.2355498E-2,-1.7821724E-2,2.0767732E-2,-1.5925044E-1,4.92386E-2,-1.3354282E-1,-1.1292549E-1,-6.416991E-2,-1.2241236E-1,-6.308537E-2,2.8779823E-2,-5.416074E-2,-8.499693E-3,4.101042E-2,-3.9262567E-2,-1.4485185E-1,-1.6264218E-1,6.0876915E-3,-1.5040945E-1,3.4495227E-2,-9.593936E-2,3.1810235E-2,2.461919E-2,-1.7263833E-1,-7.957728E-2,4.5345463E-2,-9.363111E-2,4.3424673E-2,-1.024637E-1,-1.0885093E-1],"categories":[],"categories_nodes":[],"categories_segments":[],"categories_sizes":[],"default_left":[0,0,0,0,0,0,0,0,0,0,0,0,0,0,0,0,0,0,0,0,0,0,0,0,0,0,0,0,0,0,0,0,0,0,0,0,0,0,0,0,0,0,0,0,0,0,0,0,0,0,0,0,0,0,0,0,0,0,0,0,0,0,0,0,0,0,0,0,0,0,0,0,0,0,0,0,0,0,0,0,0,0,0,0,0,0,0,0,0,0,0,0,0,0,0,0,0],"id":11,"left_children":[1,3,5,7,9,11,13,15,17,19,21,23,25,27,29,31,33,35,37,39,41,43,45,47,49,-1,51,53,-1,-1,55,57,59,61,63,65,67,69,71,73,-1,75,77,79,81,83,-1,85,-1,87,89,-1,91,93,-1,95,-1,-1,-1,-1,-1,-1,-1,-1,-1,-1,-1,-1,-1,-1,-1,-1,-1,-1,-1,-1,-1,-1,-1,-1,-1,-1,-1,-1,-1,-1,-1,-1,-1,-1,-1,-1,-1,-1,-1,-1,-1],"loss_changes":[2.6405879E4,4.5743594E3,7.815752E2,6.106719E2,7.1707393E3,1.0402822E3,2.4319336E1,1.5300557E3,3.9125E1,7.426455E2,2.6475513E2,1.9811806E2,6.111792E1,2.4157715E0,1.8293555E2,5.715703E2,1.1024038E3,7.421875E0,4.7569824E1,5.0700684E0,7.410317E2,2.3190698E2,2.3368637E2,7.812013E1,1.9998166E2,0E0,1.4079161E2,1.8407305E1,0E0,0E0,9.051758E0,1.6615526E3,1.6515527E2,2.6503662E1,3.905758E2,4.9609375E-1,8.412109E0,6.164493E1,2.673584E1,3.0354736E1,0E0,1.7087512E2,3.66497E2,1.921643E2,2.6672813E1,7.062624E1,0E0,7.22434E1,0E0,7.621535E1,1.6827829E2,0E0,8.997928E1,1.3786651E1,0E0,3.0576172E0,0E0,0E0,0E0,0E0,0E0,0E0,0E0,0E0,0E0,0E0,0E0,0E0,0E0,0E0,0E0,0E0,0E0,0E0,0E0,0E0,0E0,0E0,0E0,0E0,0E0,0E0,0E0,0E0,0E0,0E0,0E0,0E0,0E0,0E0,0E0,0E0,0E0,0E0,0E0,0E0,0E0],"parents":[2147483647,0,0,1,1,2,2,3,3,4,4,5,5,6,6,7,7,8,8,9,9,10,10,11,11,12,12,13,13,14,14,15,15,16,16,17,17,18,18,19,19,20,20,21,21,22,22,23,23,24,24,26,26,27,27,30,30,31,31,32,32,33,33,34,34,35,35,36,36,37,37,38,38,39,39,41,41,42,42,43,43,44,44,45,45,47,47,49,49,50,50,52,52,53,53,55,55],"right_children":[2,4,6,8,10,12,14,16,18,20,22,24,26,28,30,32,34,36,38,40,42,44,46,48,50,-1,52,54,-1,-1,56,58,60,62,64,66,68,70,72,74,-1,76,78,80,82,84,-1,86,-1,88,90,-1,92,94,-1,96,-1,-1,-1,-1,-1,-1,-1,-1,-1,-1,-1,-1,-1,-1,-1,-1,-1,-1,-1,-1,-1,-1,-1,-1,-1,-1,-1,-1,-1,-1,-1,-1,-1,-1,-1,-1,-1,-1,-1,-1,-1],"split_conditions":[-3.3166133E-2,-6.5755415E-1,1.581785E-1,-6.2125885E-1,-6.2125885E-1,-1.0129265E0,-1.2321304E0,-9.747835E-1,-9.193942E-1,1.5468436E-2,1.5492684E0,-7.655777E-1,-6.2125885E-1,1.7328477E-1,-1.0915997E0,-6.4099205E-1,-6.4099205E-1,-1.4481099E0,-1.4944488E0,1.7651931E0,2.3185705E1,3.221308E-1,-2.5975862E-1,7.2138977E0,1.1617692E0,-1.1023741E-1,1.5468436E-2,5.4932985E0,-1.20376885E-1,5.1949877E-2,1.397184E0,-1.4128621E0,-1.4944488E0,1.5523374E1,-3.8096324E-1,-1.4944488E0,7.484901E-1,1.13E-1,5.4802805E-1,1.4700212E0,-1.256384E-1,1.44E-1,7.742699E-1,-1.6593292E0,3.8772455E-1,2.2084042E-2,-1.8227725E-1,8.1E-2,-1.6676275E-1,-1.6593292E0,-2.9539035E-3,-1.6230492E-1,1.720195E1,4.155885E0,-1.3509236E-1,-6.4099205E-1,-1.1843254E-1,3.772178E-2,-9.5760375E-2,-2.0981608E-2,5.0751653E-2,-9.352623E-2,-1.3000147E-1,-7.621811E-2,2.7214754E-2,5.184501E-2,5.3787794E-2,5.2355498E-2,-1.7821724E-2,2.0767732E-2,-1.5925044E-1,4.92386E-2,-1.3354282E-1,-1.1292549E-1,-6.416991E-2,-1.2241236E-1,-6.308537E-2,2.8779823E-2,-5.416074E-2,-8.499693E-3,4.101042E-2,-3.9262567E-2,-1.4485185E-1,-1.6264218E-1,6.0876915E-3,-1.5040945E-1,3.4495227E-2,-9.593936E-2,3.1810235E-2,2.461919E-2,-1.7263833E-1,-7.957728E-2,4.5345463E-2,-9.363111E-2,4.3424673E-2,-1.024637E-1,-1.0885093E-1],"split_indices":[4,4,4,8,8,5,5,4,4,10,10,10,8,4,5,7,7,4,10,6,0,6,4,0,10,0,10,0,0,0,5,4,10,0,10,10,6,2,6,6,0,2,10,5,6,2,0,2,0,5,4,0,0,0,0,7,0,0,0,0,0,0,0,0,0,0,0,0,0,0,0,0,0,0,0,0,0,0,0,0,0,0,0,0,0,0,0,0,0,0,0,0,0,0,0,0,0],"split_type":[0,0,0,0,0,0,0,0,0,0,0,0,0,0,0,0,0,0,0,0,0,0,0,0,0,0,0,0,0,0,0,0,0,0,0,0,0,0,0,0,0,0,0,0,0,0,0,0,0,0,0,0,0,0,0,0,0,0,0,0,0,0,0,0,0,0,0,0,0,0,0,0,0,0,0,0,0,0,0,0,0,0,0,0,0,0,0,0,0,0,0,0,0,0,0,0,0],"sum_hessian":[8.955399E4,8.606264E4,3.491345E3,7.825165E4,7.8109927E3,9.2959393E2,2.561751E3,1.658059E4,6.167106E4,1.8201016E3,5.990891E3,4.2836435E2,5.0122955E2,4.158162E2,2.1459348E3,1.5634993E4,9.455972E2,5.710365E4,4.567412E3,7.881944E2,1.0319072E3,5.8551494E3,1.3574191E2,4.1854374E1,3.8650998E2,4.2254016E2,7.86894E1,1.1585148E1,4.0423105E2,1.7848946E1,2.128086E3,2.7004465E3,1.2934547E4,2.3579225E2,7.0980493E2,4.2455742E4,1.4647904E4,7.596702E1,4.4914453E3,6.6224854E2,1.2594585E2,4.932907E2,5.386165E2,5.828344E3,2.6805132E1,1.1502462E2,2.0717285E1,2.1584364E1,2.0270012E1,3.4401416E2,4.249581E1,2.2956118E1,5.5733284E1,5.740002E0,5.8451457E0,1.9200992E3,2.079867E2,2.4436921E3,2.567543E2,8.0241974E1,1.2854305E4,1.13153625E2,1.22638626E2,1.0652544E2,6.0327954E2,1.1200663E3,4.1335676E4,1.4644076E4,3.8279624E0,7.1876526E1,4.0904937E0,4.490371E3,1.0739229E0,6.23891E2,3.835755E1,2.4311679E2,2.5017393E2,3.0181012E2,2.368064E2,2.0273526E2,5.625609E3,1.0697125E1,1.6108007E1,5.5712647E0,1.09453354E2,7.0673E0,1.4517063E1,1.1147524E1,3.3286664E2,1.8893394E1,2.3602417E1,2.7675974E1,2.805731E1,2.0169117E0,3.7230904E0,1.1702058E3,7.4989343E2],"tree_param":{"num_deleted":"0","num_feature":"11","num_nodes":"97","size_leaf_vector":"1"}},{"base_weights":[8.251624E-1,-1.95664E0,9.8344207E-1,-9.346735E-1,-2.0867865E0,1.0042249E0,-2.166217E0,-2.6877027E0,1.0655975E-1,-1.9810811E0,-2.3473237E0,1.7565757E-1,1.0188115E0,-1.2409847E0,-2.3473368E0,-8.764392E-2,-2.7989366E0,4.2688546E-1,-2.67514E0,-9.091707E-2,-2.0239513E0,-2.1464877E0,-2.6552582E0,-2.2440572E0,7.44171E-1,1.0284228E0,2.6907077E-1,-1.4589598E-2,-1.1665583E-1,-2.2154968E0,-1.3620971E-1,-1.6933915E-1,-1.2541503E-1,-2.2238258E-1,6.29265E-1,-2.1146432E-1,-3.8738912E-1,-2.2288373E0,-1.9473742E0,2.5780967E-1,-2.181033E0,-1.4137142E0,-2.8553967E0,-2.4665694E0,-1.0485893E-1,7.950981E-1,-2.0536749E-1,8.938535E-1,1.0633292E0,-2.5165951E0,7.8607756E-1,-1.6279785E-1,7.7238744E-1,-1.03011586E-1,-1.2682304E-1,3.438356E-2,-1.657903E-1,-1.6685691E-1,2.6795695E-2,-1.526029E-1,-1.0821276E-1,-9.636953E-2,-1.0633727E-1,5.029891E-2,-1.2559338E-1,-9.158041E-2,-1.1505771E-1,-1.4174427E-1,2.7251655E-2,-1.8067858E-1,-1.1665147E-1,-1.5185365E-1,-1.1082929E-1,4.8033006E-2,-7.240156E-3,-4.0668234E-2,4.6681944E-2,5.3333748E-2,4.9905922E-2,-7.148879E-2,-1.3998702E-1,-1.8758726E-1,4.1470315E-2,4.9168125E-2,-1.3202618E-1],"categories":[],"categories_nodes":[],"categories_segments":[],"categories_sizes":[],"default_left":[0,0,0,0,0,0,0,0,0,0,0,0,0,0,0,0,0,0,0,0,0,0,0,0,0,0,0,0,0,0,0,0,0,0,0,0,0,0,0,0,0,0,0,0,0,0,0,0,0,0,0,0,0,0,0,0,0,0,0,0,0,0,0,0,0,0,0,0,0,0,0,0,0,0,0,0,0,0,0,0,0,0,0,0,0],"id":12,"left_children":[1,3,5,7,9,11,13,15,17,19,21,23,25,27,29,-1,31,33,35,-1,37,39,41,43,45,47,49,51,-1,53,-1,-1,-1,-1,55,-1,57,59,61,63,65,67,69,71,-1,73,-1,75,77,79,81,-1,83,-1,-1,-1,-1,-1,-1,-1,-1,-1,-1,-1,-1,-1,-1,-1,-1,-1,-1,-1,-1,-1,-1,-1,-1,-1,-1,-1,-1,-1,-1,-1,-1],"loss_changes":[3.7989195E4,6.158594E2,5.3456562E3,9.613558E2,1.0879883E2,9.7996094E2,8.6812256E1,1.5499634E1,2.9633386E2,1.680957E1,6.749658E1,1.9333339E3,5.739922E2,1.2020982E2,1.615625E1,0E0,2.1180542E1,2.9671677E2,1.2048337E2,0E0,3.1992188E1,6.049341E1,1.1100635E2,3.5664062E0,2.843849E2,3.6865625E2,1.4566769E3,1.1295428E2,0E0,1.1530884E1,0E0,0E0,0E0,0E0,6.839535E1,0E0,4.2628006E1,2.6522217E1,1.9711914E0,2.555924E1,2.5646973E1,1.8597653E2,1.490896E2,7.6219482E0,0E0,1.7548468E2,0E0,1.1019639E3,1.25625E1,4.4727173E1,1.7076917E2,0E0,2.8262264E1,0E0,0E0,0E0,0E0,0E0,0E0,0E0,0E0,0E0,0E0,0E0,0E0,0E0,0E0,0E0,0E0,0E0,0E0,0E0,0E0,0E0,0E0,0E0,0E0,0E0,0E0,0E0,0E0,0E0,0E0,0E0,0E0],"parents":[2147483647,0,0,1,1,2,2,3,3,4,4,5,5,6,6,7,7,8,8,9,9,10,10,11,11,12,12,13,13,14,14,16,16,17,17,18,18,20,20,21,21,22,22,23,23,24,24,25,25,26,26,27,27,29,29,34,34,36,36,37,37,38,38,39,39,40,40,41,41,42,42,43,43,45,45,47,47,48,48,49,49,50,50,52,52],"right_children":[2,4,6,8,10,12,14,16,18,20,22,24,26,28,30,-1,32,34,36,-1,38,40,42,44,46,48,50,52,-1,54,-1,-1,-1,-1,56,-1,58,60,62,64,66,68,70,72,-1,74,-1,76,78,80,82,-1,84,-1,-1,-1,-1,-1,-1,-1,-1,-1,-1,-1,-1,-1,-1,-1,-1,-1,-1,-1,-1,-1,-1,-1,-1,-1,-1,-1,-1,-1,-1,-1,-1],"split_conditions":[2.1306875E-1,-8.6904037E-1,1.581785E-1,-6.2125885E-1,-6.2125885E-1,8.6120147E-1,2.286739E-1,2.485E1,1.23E-1,2.485E1,6.752E1,-6.2125885E-1,-1.4394471E-1,-9.463749E-1,-6.2125885E-1,-8.764392E-2,5.0798306E1,3.327017E-2,1.5607668E-1,-9.091707E-2,4.575295E1,-8.337927E-1,1.284227E0,5.425E1,1.9944292E1,-6.2125885E-1,-6.2125885E-1,-1.2321304E0,-1.1665583E-1,1.2349195E0,-1.3620971E-1,-1.6933915E-1,-1.2541503E-1,-2.2238258E-1,-3.6053646E-1,-2.1146432E-1,7.478E1,-6.5755415E-1,7.893E1,-1.6337284E0,5.379E1,8.389E1,-2.9539035E-3,-6.4726883E-1,-1.0485893E-1,-5.9209406E-1,-2.0536749E-1,1.2234368E0,-5.3166944E-1,-6.49995E-1,-1.6593292E0,-1.6279785E-1,8.4055145E1,-1.03011586E-1,-1.2682304E-1,3.438356E-2,-1.657903E-1,-1.6685691E-1,2.6795695E-2,-1.526029E-1,-1.0821276E-1,-9.636953E-2,-1.0633727E-1,5.029891E-2,-1.2559338E-1,-9.158041E-2,-1.1505771E-1,-1.4174427E-1,2.7251655E-2,-1.8067858E-1,-1.1665147E-1,-1.5185365E-1,-1.1082929E-1,4.8033006E-2,-7.240156E-3,-4.0668234E-2,4.6681944E-2,5.3333748E-2,4.9905922E-2,-7.148879E-2,-1.3998702E-1,-1.8758726E-1,4.1470315E-2,4.9168125E-2,-1.3202618E-1],"split_indices":[3,4,4,8,8,3,4,1,2,1,1,8,4,5,8,0,1,2,3,0,1,4,0,1,0,8,8,5,0,3,0,0,0,0,6,0,1,4,1,5,1,1,4,4,0,4,0,3,4,6,5,0,1,0,0,0,0,0,0,0,0,0,0,0,0,0,0,0,0,0,0,0,0,0,0,0,0,0,0,0,0,0,0,0,0],"split_type":[0,0,0,0,0,0,0,0,0,0,0,0,0,0,0,0,0,0,0,0,0,0,0,0,0,0,0,0,0,0,0,0,0,0,0,0,0,0,0,0,0,0,0,0,0,0,0,0,0,0,0,0,0,0,0,0,0,0,0,0,0,0,0,0,0,0,0,0,0,0,0,0,0,0,0,0,0,0,0,0,0,0,0,0,0],"sum_hessian":[8.6274336E4,4.643977E3,8.163036E4,5.255233E2,4.1184536E3,8.109594E4,5.344243E2,1.9523788E2,3.3028546E2,2.9359E3,1.1825537E3,1.4031925E3,7.969274E4,8.877542E1,4.4564886E2,2.2542896E1,1.7269498E2,2.9693817E2,3.334728E1,6.2119543E2,2.3147046E3,7.2056775E2,4.61986E2,2.663981E2,1.1367944E3,7.868369E4,1.0090613E3,4.229461E1,4.6480812E1,3.352453E2,1.1040357E2,5.3609776E1,1.19085205E2,1.1000564E1,2.859376E2,1.9352087E1,1.3995193E1,6.221111E2,1.6925934E3,1.0115008E1,7.1045276E2,6.52537E1,3.967323E2,9.9646484E1,1.6675162E2,1.1258127E3,1.0981695E1,1.6211707E4,6.2471977E4,1.5735495E2,8.517063E2,7.6497693E0,3.4644836E1,2.3094531E2,1.0429999E2,2.8257974E2,3.3578618E0,2.7130976E0,1.1282095E1,4.1889668E1,5.8022144E2,1.5334924E3,1.5910098E2,8.465126E0,1.6498826E0,1.8590767E2,5.245451E2,3.7556934E1,2.769677E1,1.5942381E2,2.3730849E2,2.6963135E1,7.268335E1,9.571842E2,1.6862846E2,3.6875436E2,1.5842952E4,5.9408555E4,3.0634236E3,3.3772556E1,1.235824E2,7.245976E0,8.444603E2,3.3298313E1,1.3465232E0],"tree_param":{"num_deleted":"0","num_feature":"11","num_nodes":"85","size_leaf_vector":"1"}},{"base_weights":[8.163975E-1,-1.8140097E0,9.7823364E-1,-1.2347698E0,-1.9407611E0,-1.18387425E-2,1.0003825E0,-2.1003888E0,-1.8069485E-1,-2.424143E0,-1.8734719E0,3.8629565E-1,-2.149625E0,7.314135E-1,1.0118634E0,-1.9809564E0,-2.4286416E0,-1.4100417E-1,3.1909785E-1,-2.1875434E0,-2.8950343E0,5.1220525E-2,-1.8892355E0,-2.4521008E0,5.286206E-1,-1.4594778E-1,-2.0936418E0,8.661681E-1,-3.3528608E-1,-1.464264E-1,1.0123692E0,-8.778781E-2,-2.0516264E0,-1.357799E-1,-2.1493506E0,-1.2196056E-1,4.9714684E-1,-8.844728E-2,-2.2945051E0,-1.340326E-1,-1.6695958E-1,-1.9257882E0,-1.2049651E0,-1.7445453E-1,-2.0720818E0,-1.1824272E0,6.350517E-1,-9.651922E-2,-2.2070618E0,8.883302E-1,-1.2928648E-1,-1.4748094E0,4.6363664E-1,1.0543098E0,9.6477306E-1,-1.086052E-1,-9.5905304E-2,-9.471046E-2,-1.2534514E-1,3.3667564E-2,-8.032564E-2,-1.1067796E-1,-1.420099E-1,-8.7706745E-2,-9.849515E-2,5.28838E-2,-9.2122525E-2,-9.3200944E-2,-1.4929062E-1,3.0298328E-2,-9.725981E-2,3.4975927E-2,-5.5433284E-2,-8.77087E-2,-1.1424496E-1,-7.086842E-2,4.555207E-2,-1.1996193E-1,-1.741893E-2,2.9134357E-2,-1.4477482E-1,5.2809693E-2,4.871426E-2,4.8812803E-2,9.814008E-3],"categories":[],"categories_nodes":[],"categories_segments":[],"categories_sizes":[],"default_left":[0,0,0,0,0,0,0,0,0,0,0,0,0,0,0,0,0,0,0,0,0,0,0,0,0,0,0,0,0,0,0,0,0,0,0,0,0,0,0,0,0,0,0,0,0,0,0,0,0,0,0,0,0,0,0,0,0,0,0,0,0,0,0,0,0,0,0,0,0,0,0,0,0,0,0,0,0,0,0,0,0,0,0,0,0],"id":13,"left_children":[1,3,5,7,9,11,13,15,17,19,21,23,25,27,29,31,33,-1,35,37,39,-1,41,43,45,-1,47,49,51,-1,53,-1,55,-1,57,-1,59,-1,61,-1,-1,63,65,-1,67,69,71,-1,73,75,-1,77,79,81,83,-1,-1,-1,-1,-1,-1,-1,-1,-1,-1,-1,-1,-1,-1,-1,-1,-1,-1,-1,-1,-1,-1,-1,-1,-1,-1,-1,-1,-1,-1],"loss_changes":[3.5163406E4,3.4911133E2,1.7063438E3,7.8641785E2,1.2316992E2,1.4508267E3,2.3428125E2,1.3747803E1,5.152669E2,4.67417E1,1.5957812E2,5.8180914E2,5.414795E0,4.4866772E2,1.4841406E2,2.0083008E0,3.9299927E0,0E0,1.6266249E2,1.0320801E1,5.92395E0,0E0,8.353711E1,1.9879639E1,2.5009634E2,0E0,4.243164E-1,2.1418506E2,3.198497E2,0E0,1.4467188E2,0E0,5.432129E-2,0E0,1.3227844E0,0E0,1.1585696E2,0E0,4.8632812E0,0E0,0E0,2.1208008E1,2.5687988E2,0E0,4.473404E0,1.110324E2,1.457511E2,0E0,1.0085449E0,1.4544214E2,0E0,1.4987207E2,8.440837E1,4.8125E0,3.015918E2,0E0,0E0,0E0,0E0,0E0,0E0,0E0,0E0,0E0,0E0,0E0,0E0,0E0,0E0,0E0,0E0,0E0,0E0,0E0,0E0,0E0,0E0,0E0,0E0,0E0,0E0,0E0,0E0,0E0,0E0],"parents":[2147483647,0,0,1,1,2,2,3,3,4,4,5,5,6,6,7,7,8,8,9,9,10,10,11,11,12,12,13,13,14,14,15,15,16,16,18,18,19,19,20,20,22,22,23,23,24,24,26,26,27,27,28,28,30,30,32,32,34,34,36,36,38,38,41,41,42,42,44,44,45,45,46,46,48,48,49,49,51,51,52,52,53,53,54,54],"right_children":[2,4,6,8,10,12,14,16,18,20,22,24,26,28,30,32,34,-1,36,38,40,-1,42,44,46,-1,48,50,52,-1,54,-1,56,-1,58,-1,60,-1,62,-1,-1,64,66,-1,68,70,72,-1,74,76,-1,78,80,82,84,-1,-1,-1,-1,-1,-1,-1,-1,-1,-1,-1,-1,-1,-1,-1,-1,-1,-1,-1,-1,-1,-1,-1,-1,-1,-1,-1,-1,-1,-1],"split_conditions":[2.7341336E-1,7.2138977E0,8.902691E-1,-2.5627792E-1,-1.2321304E0,1.9944292E1,1.185287E0,6.99E1,1.5468436E-2,6.99E1,-1.0915997E0,-1.1272556E0,-1.0129265E0,2E1,2.485E1,5.379E1,-1.0129265E0,-1.4100417E-1,-1.2075219E0,5.379E1,-8.194649E-3,5.1220525E-2,1.527078E0,-1.0129265E0,-1.2075219E0,-1.4594778E-1,-6.4099205E-1,-3.3518517E-1,1.1484097E0,-1.464264E-1,-9.463749E-1,-8.778781E-2,-1.0129265E0,-1.357799E-1,1.397184E0,-1.2196056E-1,-8.413127E-1,-8.844728E-2,-1.3223629E-1,-1.340326E-1,-1.6695958E-1,2.569E1,1.6676718E0,-1.7445453E-1,1.397184E0,1.284227E0,1.5492684E0,-9.651922E-2,2.837E1,-1.4944488E0,-1.2928648E-1,3.364391E1,8.569192E1,1.5492684E0,1.5492684E0,-1.086052E-1,-9.5905304E-2,-9.471046E-2,-1.2534514E-1,3.3667564E-2,-8.032564E-2,-1.1067796E-1,-1.420099E-1,-8.7706745E-2,-9.849515E-2,5.28838E-2,-9.2122525E-2,-9.3200944E-2,-1.4929062E-1,3.0298328E-2,-9.725981E-2,3.4975927E-2,-5.5433284E-2,-8.77087E-2,-1.1424496E-1,-7.086842E-2,4.555207E-2,-1.1996193E-1,-1.741893E-2,2.9134357E-2,-1.4477482E-1,5.2809693E-2,4.871426E-2,4.8812803E-2,9.814008E-3],"split_indices":[3,0,3,3,5,0,3,1,10,1,5,10,5,0,1,1,5,0,9,1,3,0,5,5,9,0,7,7,3,0,5,0,5,0,5,0,6,0,3,0,0,1,5,0,5,0,10,0,1,10,0,0,1,10,10,0,0,0,0,0,0,0,0,0,0,0,0,0,0,0,0,0,0,0,0,0,0,0,0,0,0,0,0,0,0],"split_type":[0,0,0,0,0,0,0,0,0,0,0,0,0,0,0,0,0,0,0,0,0,0,0,0,0,0,0,0,0,0,0,0,0,0,0,0,0,0,0,0,0,0,0,0,0,0,0,0,0,0,0,0,0,0,0,0,0,0,0,0,0,0,0,0,0,0,0,0,0,0,0,0,0,0,0,0,0,0,0,0,0,0,0,0,0],"sum_hessian":[8.259721E4,4.786674E3,7.781053E4,8.613126E2,3.9253613E3,1.7026207E3,7.6107914E4,4.723887E2,3.889239E2,4.7537955E2,3.4499817E3,1.4360034E3,2.666173E2,3.118307E3,7.298961E4,3.5152417E2,1.20864525E2,6.118189E1,3.27742E2,3.2016025E2,1.552193E2,1.8319191E1,3.4316626E3,6.779209E1,1.3682113E3,1.4616444E1,2.5200087E2,2.7687258E3,3.495811E2,8.623323E0,7.2980984E4,9.01362E1,2.6138797E2,5.5311626E1,6.5552895E1,1.9102905E1,3.086391E2,6.872829E1,2.5143196E2,1.0943398E2,4.5785316E1,3.2559216E3,1.7574089E2,1.5986649E1,5.180544E1,7.953012E1,1.2886813E3,1.1069122E2,1.4130965E2,2.751801E3,1.6924648E1,1.4372975E2,2.0585133E2,3.8784086E4,3.4196895E4,1.2937923E2,1.3200876E2,4.1930153E1,2.3622742E1,2.854126E2,2.3226501E1,2.2335657E2,2.8075396E1,6.7402075E2,2.581901E3,3.8485245E1,1.3725565E2,4.467308E1,7.13236E0,2.384008E1,5.569004E1,1.2433136E3,4.53676E1,2.417669E1,1.1713296E2,2.6241964E1,2.725559E3,7.832266E1,6.540709E1,1.9960374E2,6.247589E0,3.788011E4,9.03978E2,3.369317E4,5.0372336E2],"tree_param":{"num_deleted":"0","num_feature":"11","num_nodes":"85","size_leaf_vector":"1"}},{"base_weights":[8.108456E-1,9.2039496E-1,-1.6245433E0,1.0039444E0,2.656124E-1,-1.740204E0,-2.223838E-3,8.421956E-1,1.0488834E0,-1.3646122E0,7.491792E-1,-1.368359E0,-1.8712704E0,7.3804474E-1,-2.2429945E0,9.418642E-1,1.7974153E-1,-8.397256E-2,1.0490977E0,-1.769463E0,-1.0049952E0,-9.00486E-1,8.8432074E-1,-1.917949E0,-6.783861E-1,-1.8266478E0,-2.0965319E0,9.740605E-1,-1.21067576E-1,-1.2630148E0,-2.356021E0,-9.383598E-2,9.626979E-1,-2.1109545E0,6.156794E-1,1.0592388E0,1.0070738E0,-1.9942349E0,-8.2569534E-1,-1.9971756E0,-5.0569564E-1,-4.9644655E-1,-2.0190275E0,4.6962544E-1,9.355869E-1,-8.274591E-2,-1.9673216E0,-9.86197E-2,-6.562377E-2,-1.5120513E0,-1.840655E0,-9.730111E-2,-1.15019254E-1,9.948208E-1,9.559444E-3,-1.3295463E-1,2.2681925E-2,-1.0705199E-1,-3.0498555E0,2.0501519E-2,-9.503085E-2,3.603844E-2,5.056584E-2,-7.999763E-2,-1.3856383E-1,-1.18680894E-1,3.7686218E-2,5.3164043E-2,5.2272376E-2,3.4374904E-2,5.0932672E-2,-9.5591865E-2,-1.1091999E-1,-1.6766463E-1,4.667008E-3,-8.822226E-2,-1.1968058E-1,2.9140761E-2,-8.4137686E-2,-7.931688E-2,-3.0216204E-3,-7.612594E-2,-1.1793949E-1,3.226372E-2,-1.3350253E-1,4.697918E-2,-1.4731625E-1,-9.312223E-2,-1.09269135E-1,1.2626779E-2,-8.567032E-2,-9.21716E-2,-1.1470874E-2,-8.450813E-2,-9.356696E-2,5.328989E-2,4.1687254E-2,-2.179962E-1,-1.0491959E-1],"categories":[],"categories_nodes":[],"categories_segments":[],"categories_sizes":[],"default_left":[0,0,0,0,0,0,0,0,0,0,0,0,0,0,0,0,0,0,0,0,0,0,0,0,0,0,0,0,0,0,0,0,0,0,0,0,0,0,0,0,0,0,0,0,0,0,0,0,0,0,0,0,0,0,0,0,0,0,0,0,0,0,0,0,0,0,0,0,0,0,0,0,0,0,0,0,0,0,0,0,0,0,0,0,0,0,0,0,0,0,0,0,0,0,0,0,0,0,0],"id":14,"left_children":[1,3,5,7,9,11,13,15,17,19,21,23,25,27,29,31,33,-1,35,37,39,41,43,45,47,49,51,53,-1,55,57,59,61,63,65,67,69,71,73,75,77,79,81,83,85,-1,87,-1,89,91,93,-1,-1,95,-1,-1,-1,-1,97,-1,-1,-1,-1,-1,-1,-1,-1,-1,-1,-1,-1,-1,-1,-1,-1,-1,-1,-1,-1,-1,-1,-1,-1,-1,-1,-1,-1,-1,-1,-1,-1,-1,-1,-1,-1,-1,-1,-1,-1],"loss_changes":[2.1310785E4,4.181172E3,6.451914E2,4.9182812E2,6.8204805E3,1.5386719E2,3.8289062E2,9.7325195E2,3.2757812E1,2.8639478E2,1.4883E3,3.1730823E2,1.9998047E1,1.3173889E2,3.373291E0,2.7660156E2,1.9278953E3,0E0,2.1542969E1,1.9559204E2,5.1942175E2,2.2754309E2,1.3068164E2,2.810791E0,2.9648145E2,5.9697266E0,7.3408203E0,2.4453735E0,0E0,2.0577698E1,9.6362305E-1,2.3165466E2,1.4703027E2,9.9724E1,6.7095886E2,1.2617188E0,3.7532227E1,9.616455E0,4.197326E2,2.8192871E1,8.980935E2,1.7707791E2,1.8991882E1,3.7704834E2,8.791211E1,0E0,4.803711E0,0E0,1.3406372E2,3.7945816E1,5.5976562E0,0E0,0E0,9.147186E-1,0E0,0E0,0E0,0E0,2.727417E0,0E0,0E0,0E0,0E0,0E0,0E0,0E0,0E0,0E0,0E0,0E0,0E0,0E0,0E0,0E0,0E0,0E0,0E0,0E0,0E0,0E0,0E0,0E0,0E0,0E0,0E0,0E0,0E0,0E0,0E0,0E0,0E0,0E0,0E0,0E0,0E0,0E0,0E0,0E0,0E0],"parents":[2147483647,0,0,1,1,2,2,3,3,4,4,5,5,6,6,7,7,8,8,9,9,10,10,11,11,12,12,13,13,14,14,15,15,16,16,18,18,19,19,20,20,21,21,22,22,23,23,24,24,25,25,26,26,27,27,29,29,30,30,31,31,32,32,33,33,34,34,35,35,36,36,37,37,38,38,39,39,40,40,41,41,42,42,43,43,44,44,46,46,48,48,49,49,50,50,53,53,58,58],"right_children":[2,4,6,8,10,12,14,16,18,20,22,24,26,28,30,32,34,-1,36,38,40,42,44,46,48,50,52,54,-1,56,58,60,62,64,66,68,70,72,74,76,78,80,82,84,86,-1,88,-1,90,92,94,-1,-1,96,-1,-1,-1,-1,98,-1,-1,-1,-1,-1,-1,-1,-1,-1,-1,-1,-1,-1,-1,-1,-1,-1,-1,-1,-1,-1,-1,-1,-1,-1,-1,-1,-1,-1,-1,-1,-1,-1,-1,-1,-1,-1,-1,-1,-1],"split_conditions":[-3.3166133E-2,-7.4315566E-1,9.240085E1,-6.2125885E-1,-6.2125885E-1,1.9342636E-1,-1.0915997E0,-1.2567651E0,5.0798306E1,2.3185705E1,6.894E1,7.088E1,7.578E1,1.581785E-1,4.155885E0,-6.188673E-1,-6.4099205E-1,-8.397256E-2,-1.2567651E0,8.4055145E1,4.048266E1,-1.0915997E0,7.504E1,2.569E1,-6.2125885E-1,2.286739E-1,-6.2125885E-1,1.380369E-1,-1.21067576E-1,-9.5044583E-1,-6.2125885E-1,1.7874523E1,-6.4099205E-1,-2.3541598E-1,3.135E1,-1.5739944E0,6.637E1,-6.4099205E-1,1.43E-1,2.923E1,4.707672E1,1.0128318E1,5.755E1,1.5224469E0,3.8772455E-1,-8.274591E-2,-6.4099205E-1,-9.86197E-2,-5.646688E-1,7.088E1,2.656E1,-9.730111E-2,-1.15019254E-1,6.1859794E0,9.559444E-3,-1.3295463E-1,2.2681925E-2,-1.0705199E-1,1.7328477E-1,2.0501519E-2,-9.503085E-2,3.603844E-2,5.056584E-2,-7.999763E-2,-1.3856383E-1,-1.18680894E-1,3.7686218E-2,5.3164043E-2,5.2272376E-2,3.4374904E-2,5.0932672E-2,-9.5591865E-2,-1.1091999E-1,-1.6766463E-1,4.667008E-3,-8.822226E-2,-1.1968058E-1,2.9140761E-2,-8.4137686E-2,-7.931688E-2,-3.0216204E-3,-7.612594E-2,-1.1793949E-1,3.226372E-2,-1.3350253E-1,4.697918E-2,-1.4731625E-1,-9.312223E-2,-1.09269135E-1,1.2626779E-2,-8.567032E-2,-9.21716E-2,-1.1470874E-2,-8.450813E-2,-9.356696E-2,5.328989E-2,4.1687254E-2,-2.179962E-1,-1.0491959E-1],"split_indices":[4,4,1,8,8,4,5,4,1,0,1,1,1,4,0,5,7,0,4,1,1,5,1,1,8,4,8,4,0,6,8,0,7,6,1,4,1,7,2,1,1,0,1,5,6,0,7,0,6,1,1,0,0,0,0,0,0,0,4,0,0,0,0,0,0,0,0,0,0,0,0,0,0,0,0,0,0,0,0,0,0,0,0,0,0,0,0,0,0,0,0,0,0,0,0,0,0,0,0],"split_type":[0,0,0,0,0,0,0,0,0,0,0,0,0,0,0,0,0,0,0,0,0,0,0,0,0,0,0,0,0,0,0,0,0,0,0,0,0,0,0,0,0,0,0,0,0,0,0,0,0,0,0,0,0,0,0,0,0,0,0,0,0,0,0,0,0,0,0,0,0,0,0,0,0,0,0,0,0,0,0,0,0,0,0,0,0,0,0,0,0,0,0,0,0,0,0,0,0,0,0],"sum_hessian":[7.987032E4,7.643282E4,3.4375005E3,6.778323E4,8.649595E3,3.2086707E3,2.2882974E2,1.4742026E4,5.3041203E4,1.9783295E3,6.6712656E3,8.392098E2,2.369461E3,1.7250954E2,5.6320206E1,1.2813731E4,1.9282947E3,3.5482047E0,5.3037652E4,9.2879126E2,1.0495382E3,5.047044E2,6.166561E3,4.661353E2,3.7307443E2,1.9852969E3,3.8416397E2,1.6116199E2,1.1347556E1,7.0829434E0,4.9237263E1,2.5260432E2,1.2561127E4,3.07684E2,1.6206107E3,4.270735E4,1.0330301E4,7.492367E2,1.795546E2,3.503474E2,6.9919086E2,3.718343E2,1.328701E2,6.795779E2,5.4869834E3,7.912413E1,3.8701117E2,1.19178665E2,2.5389578E2,8.9270805E1,1.8960261E3,2.2706374E2,1.5710025E2,1.5673492E2,4.427059E0,3.6034334E0,3.47951E0,4.0709457E1,8.527804E0,1.981252E2,5.4479134E1,2.1045627E3,1.0456564E4,1.753834E2,1.3230058E2,7.082103E1,1.5497897E3,3.2968664E4,9.73869E3,3.633345E2,9.966966E3,5.54825E2,1.9441168E2,4.717149E1,1.3238312E2,2.2418741E2,1.2616E2,3.6352127E2,3.356696E2,1.05494576E2,2.6633972E2,5.6209663E1,7.6660446E1,6.443256E2,3.525226E1,5.482097E3,4.8861604E0,2.6776825E2,1.1924292E2,2.1351611E2,4.0379658E1,7.059475E1,1.867605E1,3.306107E2,1.5654154E3,1.0489627E2,5.183866E1,2.0806413E0,6.4471626E0],"tree_param":{"num_deleted":"0","num_feature":"11","num_nodes":"99","size_leaf_vector":"1"}},{"base_weights":[8.018884E-1,-1.6760422E0,9.6439844E-1,-6.8050367E-1,-1.8211806E0,9.878416E-1,-1.7864827E0,8.783585E-2,-2.1563087E0,-1.9847156E0,-1.7756158E0,1.0110455E0,5.1016706E-1,-7.629793E-1,-2.0522404E0,-1.3991891E-1,3.6972475E-1,-2.3893604E0,-5.5999976E-1,-2.0803304E0,-6.4871216E-1,-1.7391969E0,-2.0754044E0,5.455335E-1,1.0176768E0,8.9128953E-1,-2.7540767E-1,2.5936893E-1,-2.1269274E0,-1.1918358E-1,-1.9858184E0,-1.8435868E0,5.4066E-1,-2.552272E0,-1.7388384E0,4.2641488E-1,-1.2261649E-1,-1.8956062E0,-2.5558999E0,7.742911E-1,-2.487726E0,-8.150544E-2,-1.7694992E0,-1.8724569E0,-2.4882314E0,7.708031E-1,-2.2759597E0,1.0228757E0,7.47444E-1,-2.736083E-1,9.123829E-1,-1.7835227E0,3.111227E-1,-2.6960354E0,6.485027E-1,-8.895296E-2,-1.21496476E-1,4.22052E-2,-2.011956E0,-1.494137E-1,2.1860491E-2,3.1623907E-2,-9.120518E-2,-7.64125E-2,-1.3236977E-1,-2.5258444E-3,-1.2217148E-1,4.9281634E-2,-2.6466573E-2,1.4983653E-2,-9.724973E-2,-1.603816E-1,-9.601409E-2,-9.521749E-2,4.862009E-2,-1.5308665E-1,-9.160235E-2,-8.489477E-2,-9.903597E-2,-1.2776862E-1,-9.114397E-2,-1.5439461E-1,-9.8563164E-2,-1.3432314E-1,4.1982353E-2,-1.5891372E-1,-1.0796002E-1,4.052335E-2,5.1398065E-2,3.9457697E-2,-2.868053E-1,4.65911E-2,-5.3620934E-2,-8.3084755E-2,-2.4968942E-1,2.5965283E-2,-8.62394E-2,1.3817069E-2,-2.4931423E-1,4.1868143E-2,-6.886837E-2,-9.311052E-2,-1.1042483E-1],"categories":[],"categories_nodes":[],"categories_segments":[],"categories_sizes":[],"default_left":[0,0,0,0,0,0,0,0,0,0,0,0,0,0,0,0,0,0,0,0,0,0,0,0,0,0,0,0,0,0,0,0,0,0,0,0,0,0,0,0,0,0,0,0,0,0,0,0,0,0,0,0,0,0,0,0,0,0,0,0,0,0,0,0,0,0,0,0,0,0,0,0,0,0,0,0,0,0,0,0,0,0,0,0,0,0,0,0,0,0,0,0,0,0,0,0,0,0,0,0,0,0,0],"id":15,"left_children":[1,3,5,7,9,11,13,15,17,19,21,23,25,27,29,-1,31,33,35,37,39,41,43,45,47,49,51,53,55,-1,57,59,61,63,65,67,-1,69,71,73,75,-1,77,79,81,83,85,87,89,-1,91,93,95,97,99,-1,-1,-1,101,-1,-1,-1,-1,-1,-1,-1,-1,-1,-1,-1,-1,-1,-1,-1,-1,-1,-1,-1,-1,-1,-1,-1,-1,-1,-1,-1,-1,-1,-1,-1,-1,-1,-1,-1,-1,-1,-1,-1,-1,-1,-1,-1,-1],"loss_changes":[3.0665293E4,6.759863E2,4.6102656E3,6.782302E2,2.6952148E1,7.848672E2,1.62781E2,3.2174884E2,7.48396E1,1.1141577E2,3.1417969E1,2.0805469E2,9.8366254E2,1.7644258E2,5.8129883E0,0E0,1.3719829E2,1.4465698E1,5.217693E1,6.7485596E1,1.6001672E2,6.5927734E0,2.4024048E1,6.063678E2,9.2828125E1,3.018861E2,9.503418E2,8.5689E1,1.3846283E0,0E0,3.166101E1,6.9283295E1,7.388458E1,9.641113E0,4.6105644E1,1.0600839E1,0E0,6.529712E1,8.807056E1,2.0329742E1,4.398529E0,0E0,3.0393555E1,3.2495728E0,2.794928E1,2.121029E2,5.739441E-1,6.978125E1,3.4560498E2,0E0,8.609082E1,1.09349365E2,3.2892078E2,6.0508244E1,2.6138578E1,0E0,0E0,0E0,7.7088623E0,0E0,0E0,0E0,0E0,0E0,0E0,0E0,0E0,0E0,0E0,0E0,0E0,0E0,0E0,0E0,0E0,0E0,0E0,0E0,0E0,0E0,0E0,0E0,0E0,0E0,0E0,0E0,0E0,0E0,0E0,0E0,0E0,0E0,0E0,0E0,0E0,0E0,0E0,0E0,0E0,0E0,0E0,0E0,0E0],"parents":[2147483647,0,0,1,1,2,2,3,3,4,4,5,5,6,6,7,7,8,8,9,9,10,10,11,11,12,12,13,13,14,14,16,16,17,17,18,18,19,19,20,20,21,21,22,22,23,23,24,24,25,25,26,26,27,27,28,28,30,30,31,31,32,32,33,33,34,34,35,35,37,37,38,38,39,39,40,40,42,42,43,43,44,44,45,45,46,46,47,47,48,48,50,50,51,51,52,52,53,53,54,54,58,58],"right_children":[2,4,6,8,10,12,14,16,18,20,22,24,26,28,30,-1,32,34,36,38,40,42,44,46,48,50,52,54,56,-1,58,60,62,64,66,68,-1,70,72,74,76,-1,78,80,82,84,86,88,90,-1,92,94,96,98,100,-1,-1,-1,102,-1,-1,-1,-1,-1,-1,-1,-1,-1,-1,-1,-1,-1,-1,-1,-1,-1,-1,-1,-1,-1,-1,-1,-1,-1,-1,-1,-1,-1,-1,-1,-1,-1,-1,-1,-1,-1,-1,-1,-1,-1,-1,-1,-1],"split_conditions":[2.7341336E-1,-8.6904037E-1,1.07824676E-1,1.22E-1,-1.0129265E0,-4.3096167E-1,1.9342636E-1,-7.655777E-1,2.1306875E-1,8.493932E1,1.397184E0,8.6120147E-1,-9.463749E-1,-9.463749E-1,-1.2321304E0,-1.3991891E-1,3.327017E-2,1.5607668E-1,1.54E-1,6.99E1,8.569192E1,2.569E1,6.99E1,1.9944292E1,1.5492684E0,7.528175E-1,1.3783996E0,-3.8096324E-1,1.2389265E0,-1.1918358E-1,-1.0942142E0,2.1306875E-1,1.4711871E0,2.485E1,-1.0915997E0,-1.0129265E0,-1.2261649E-1,-8.337927E-1,1.581785E-1,7.925918E-1,1.581785E-1,-8.150544E-2,-6.4099205E-1,-6.5755415E-1,-2.9539035E-3,-1.1272556E0,-1.0129265E0,-1.4944488E0,2.36E-1,-2.736083E-1,1.5492684E0,1.5420773E0,1.7453321E0,7.38228E1,1.1592752E0,-8.895296E-2,-1.21496476E-1,4.22052E-2,1.1316473E0,-1.494137E-1,2.1860491E-2,3.1623907E-2,-9.120518E-2,-7.64125E-2,-1.3236977E-1,-2.5258444E-3,-1.2217148E-1,4.9281634E-2,-2.6466573E-2,1.4983653E-2,-9.724973E-2,-1.603816E-1,-9.601409E-2,-9.521749E-2,4.862009E-2,-1.5308665E-1,-9.160235E-2,-8.489477E-2,-9.903597E-2,-1.2776862E-1,-9.114397E-2,-1.5439461E-1,-9.8563164E-2,-1.3432314E-1,4.1982353E-2,-1.5891372E-1,-1.0796002E-1,4.052335E-2,5.1398065E-2,3.9457697E-2,-2.868053E-1,4.65911E-2,-5.3620934E-2,-8.3084755E-2,-2.4968942E-1,2.5965283E-2,-8.62394E-2,1.3817069E-2,-2.4931423E-1,4.1868143E-2,-6.886837E-2,-9.311052E-2,-1.1042483E-1],"split_indices":[3,4,4,2,5,4,4,10,3,1,5,3,5,5,5,0,2,3,2,1,1,1,1,0,10,3,3,10,3,0,5,3,10,1,5,5,0,4,4,10,4,0,7,4,4,10,5,10,2,0,10,5,3,1,10,0,0,0,3,0,0,0,0,0,0,0,0,0,0,0,0,0,0,0,0,0,0,0,0,0,0,0,0,0,0,0,0,0,0,0,0,0,0,0,0,0,0,0,0,0,0,0,0],"split_type":[0,0,0,0,0,0,0,0,0,0,0,0,0,0,0,0,0,0,0,0,0,0,0,0,0,0,0,0,0,0,0,0,0,0,0,0,0,0,0,0,0,0,0,0,0,0,0,0,0,0,0,0,0,0,0,0,0,0,0,0,0,0,0,0,0,0,0,0,0,0,0,0,0,0,0,0,0,0,0,0,0,0,0,0,0,0,0,0,0,0,0,0,0,0,0,0,0,0,0,0,0,0,0],"sum_hessian":[7.614637E4,4.685974E3,7.146039E4,5.9696204E2,4.0890122E3,7.085718E4,6.0320764E2,3.931955E2,2.0376653E2,8.8176013E2,3.207252E3,6.757356E4,3.2836243E3,1.2513824E2,4.780694E2,3.4191113E1,3.590044E2,1.7737416E2,2.6392376E1,8.223493E2,5.9410843E1,2.865898E3,3.4135406E2,9.502532E2,6.6623305E4,2.2108792E3,1.072745E3,7.1988815E1,5.3149426E1,7.398994E1,4.0407947E2,2.5036777E1,3.3396762E2,1.3951234E2,3.7861805E1,1.7858131E1,8.534244E0,5.9587933E2,2.2646994E2,3.3820206E1,2.5590637E1,6.3493494E2,2.230963E3,2.3256152E2,1.0879255E2,8.80667E2,6.958616E1,6.5363055E4,1.2602496E3,6.4505496E0,2.2044287E3,2.9981235E2,7.729327E2,7.686077E0,6.4302734E1,2.7941744E1,2.5207682E1,3.4115958E0,4.0066788E2,1.6463753E1,8.573026E0,3.2219028E2,1.1777332E1,1.3308597E1,1.2620375E2,1.1463936E1,2.639787E1,1.1246443E1,6.611689E0,1.2999365E1,5.8288E2,1.0981965E2,1.1665029E2,1.7359529E0,3.208425E1,1.1688505E1,1.3902133E1,1.6728894E3,5.5807355E2,1.2319576E1,2.2024196E2,4.806552E1,6.0727028E1,1.6451832E1,8.6421515E2,4.968544E0,6.4617615E1,1.5321152E3,6.383094E4,1.2530667E3,7.1829505E0,2.1835732E3,2.0855316E1,2.9031274E2,9.499579E0,7.019041E2,7.1028595E1,3.7275956E0,3.9584818E0,5.9355988E1,4.9467497E0,2.3335095E2,1.6731693E2],"tree_param":{"num_deleted":"0","num_feature":"11","num_nodes":"103","size_leaf_vector":"1"}},{"base_weights":[7.934616E-1,-1.6349355E0,9.577973E-1,-7.4049664E-1,-1.7521223E0,9.871632E-1,-1.2450404E0,-2.196132E0,1.7404789E-1,-1.6832324E0,-1.9114509E0,7.951554E-1,1.0391004E0,-1.7183286E-1,-1.9656442E0,-7.5873755E-2,-2.2544565E0,-1.4896755E-1,3.6622953E-1,-1.8859527E0,-1.6672975E0,-1.9602305E0,-1.0300114E0,-1.3263367E0,8.792871E-1,7.3394644E-1,1.044306E0,4.7240263E-1,-1.108549E-1,-1.900524E0,-2.5877557E0,-1.3264775E-1,-1.0257983E-1,5.3055E-1,-1.5366729E-1,-2.0999737E0,-8.438947E-2,-7.8914836E-2,-1.6921858E0,-1.7992556E0,-2.3554945E0,6.013265E-1,-2.4552588E0,6.5136987E-1,-2.2380977E0,9.198338E-1,-5.709634E-1,9.633713E-1,-2.1580055E-1,1.050064E0,9.4554526E-1,-2.1973243E-1,5.7449126E-1,-1.9365641E0,4.598167E-2,-3.6704314E0,-1.1159467E-1,-1.0322273E-1,3.2518018E-2,-7.64678E-2,-1.164309E-1,-9.000775E-2,-8.259284E-2,-5.6571797E-3,-9.226381E-2,-1.449623E-1,-9.40744E-2,-1.14614E-1,4.775387E-2,-1.5205386E-1,-9.289219E-2,4.9838092E-2,-2.702169E-1,-2.0776644E-1,-1.016091E-1,-9.020152E-3,4.7091436E-2,3.0187875E-2,-9.182825E-2,4.906432E-2,-1.3868164E-1,-1.03313856E-1,2.1619556E-2,5.1529635E-2,5.269977E-2,4.7773924E-2,-2.7738664E-2,3.100715E-2,-1.8988572E-1,-8.688783E-2,-1.08875945E-1,-7.8152455E-2,-2.0032938E-1],"categories":[],"categories_nodes":[],"categories_segments":[],"categories_sizes":[],"default_left":[0,0,0,0,0,0,0,0,0,0,0,0,0,0,0,0,0,0,0,0,0,0,0,0,0,0,0,0,0,0,0,0,0,0,0,0,0,0,0,0,0,0,0,0,0,0,0,0,0,0,0,0,0,0,0,0,0,0,0,0,0,0,0,0,0,0,0,0,0,0,0,0,0,0,0,0,0,0,0,0,0,0,0,0,0,0,0,0,0,0,0,0,0],"id":16,"left_children":[1,3,5,7,9,11,13,15,17,19,21,23,25,27,29,-1,31,-1,33,35,37,39,41,43,45,47,49,51,-1,53,55,-1,-1,57,-1,59,-1,-1,61,63,65,67,69,71,73,75,77,79,81,83,85,-1,87,89,-1,91,-1,-1,-1,-1,-1,-1,-1,-1,-1,-1,-1,-1,-1,-1,-1,-1,-1,-1,-1,-1,-1,-1,-1,-1,-1,-1,-1,-1,-1,-1,-1,-1,-1,-1,-1,-1,-1],"loss_changes":[2.9078379E4,4.8280078E2,4.415785E3,7.149181E2,4.159668E1,6.7077344E2,6.9431055E2,4.779663E0,2.0142195E2,6.0898438E0,5.0652832E1,2.5611143E3,8.342969E1,4.7793442E2,1.6848877E1,0E0,9.813416E0,0E0,1.7823445E2,4.9681396E0,3.2192383E0,6.955127E1,1.5573857E2,9.8868567E2,8.117783E2,1.94656E2,2.8644531E1,1.3968907E2,0E0,5.1598877E1,1.0358337E1,0E0,0E0,9.432684E1,0E0,8.494049E0,0E0,0E0,6.01416E0,6.406543E1,8.021411E1,3.4679203E1,6.8118744E0,3.68346E2,1.395835E2,3.249619E2,5.5988727E2,5.085437E1,2.1013336E2,2.6875E0,4.3464844E1,0E0,5.6500237E1,1.9415161E1,0E0,1.0759735E0,0E0,0E0,0E0,0E0,0E0,0E0,0E0,0E0,0E0,0E0,0E0,0E0,0E0,0E0,0E0,0E0,0E0,0E0,0E0,0E0,0E0,0E0,0E0,0E0,0E0,0E0,0E0,0E0,0E0,0E0,0E0,0E0,0E0,0E0,0E0,0E0,0E0],"parents":[2147483647,0,0,1,1,2,2,3,3,4,4,5,5,6,6,7,7,8,8,9,9,10,10,11,11,12,12,13,13,14,14,16,16,18,18,19,19,20,20,21,21,22,22,23,23,24,24,25,25,26,26,27,27,29,29,30,30,33,33,35,35,38,38,39,39,40,40,41,41,42,42,43,43,44,44,45,45,46,46,47,47,48,48,49,49,50,50,52,52,53,53,55,55],"right_children":[2,4,6,8,10,12,14,16,18,20,22,24,26,28,30,-1,32,-1,34,36,38,40,42,44,46,48,50,52,-1,54,56,-1,-1,58,-1,60,-1,-1,62,64,66,68,70,72,74,76,78,80,82,84,86,-1,88,90,-1,92,-1,-1,-1,-1,-1,-1,-1,-1,-1,-1,-1,-1,-1,-1,-1,-1,-1,-1,-1,-1,-1,-1,-1,-1,-1,-1,-1,-1,-1,-1,-1,-1,-1,-1,-1,-1,-1],"split_conditions":[2.7341336E-1,-9.00112E-1,-2.9539035E-3,-6.2125885E-1,-6.2125885E-1,-6.2125885E-1,-9.463749E-1,2.485E1,-1.2075219E0,-6.5755415E-1,8.493932E1,1.2187781E0,8.6120147E-1,2.286739E-1,1.397184E0,-7.5873755E-2,5.0798306E1,-1.4896755E-1,1.54E-1,5.331E1,2.569E1,6.99E1,8.569192E1,-1.6971601E0,-5.669172E-1,-6.9280183E-1,-5.0649256E-1,3.3411362E0,-1.108549E-1,-6.2125885E-1,1.7328477E-1,-1.3264775E-1,-1.0257983E-1,3.1E-2,-1.5366729E-1,2.485E1,-8.438947E-2,-7.8914836E-2,4.575295E1,-8.337927E-1,5.7470858E-2,7.370042E-1,5.7470858E-2,4.415E1,-1.062937E0,-6.188673E-1,4.307E1,1.9944292E1,7.9304713E-1,1.2804042E0,1.419784E0,-2.1973243E-1,1.3933598E0,1.185287E0,4.598167E-2,7.796374E-1,-1.1159467E-1,-1.0322273E-1,3.2518018E-2,-7.64678E-2,-1.164309E-1,-9.000775E-2,-8.259284E-2,-5.6571797E-3,-9.226381E-2,-1.449623E-1,-9.40744E-2,-1.14614E-1,4.775387E-2,-1.5205386E-1,-9.289219E-2,4.9838092E-2,-2.702169E-1,-2.0776644E-1,-1.016091E-1,-9.020152E-3,4.7091436E-2,3.0187875E-2,-9.182825E-2,4.906432E-2,-1.3868164E-1,-1.03313856E-1,2.1619556E-2,5.1529635E-2,5.269977E-2,4.7773924E-2,-2.7738664E-2,3.100715E-2,-1.8988572E-1,-8.688783E-2,-1.08875945E-1,-7.8152455E-2,-2.0032938E-1],"split_indices":[3,4,4,8,8,8,5,1,9,4,1,3,3,4,5,0,1,0,2,1,1,1,1,4,4,4,4,0,0,8,4,0,0,2,0,1,0,0,1,4,4,9,4,1,4,5,1,0,3,3,9,0,9,3,0,3,0,0,0,0,0,0,0,0,0,0,0,0,0,0,0,0,0,0,0,0,0,0,0,0,0,0,0,0,0,0,0,0,0,0,0,0,0],"split_type":[0,0,0,0,0,0,0,0,0,0,0,0,0,0,0,0,0,0,0,0,0,0,0,0,0,0,0,0,0,0,0,0,0,0,0,0,0,0,0,0,0,0,0,0,0,0,0,0,0,0,0,0,0,0,0,0,0,0,0,0,0,0,0,0,0,0,0,0,0,0,0,0,0,0,0,0,0,0,0,0,0,0,0,0,0,0,0,0,0,0,0,0,0],"sum_hessian":[7.286002E4,4.617533E3,6.824249E4,5.3574335E2,4.08179E3,6.7345266E4,8.97224E2,2.0617827E2,3.2956506E2,2.8577378E3,1.2240521E3,1.4341658E4,5.300361E4,3.6092725E2,5.3629675E2,1.8455143E1,1.8772311E2,1.809826E1,3.114668E2,1.997121E2,2.658026E3,1.1587046E3,6.5347595E1,5.464879E2,1.379517E4,8.913914E2,5.211222E4,2.7505655E2,8.587069E1,4.8914944E2,4.7147278E1,5.9251537E1,1.2847159E2,2.980726E2,1.339421E1,9.140039E1,1.083117E2,5.949382E2,2.0630876E3,8.2732214E2,3.3138242E2,3.074032E1,3.4607273E1,1.725324E2,3.7395554E2,1.3420326E4,3.7484433E2,7.1794684E2,1.7344458E2,4.9232246E4,2.8799705E3,4.787064E0,2.702695E2,4.8328665E2,5.862815E0,9.359068E0,3.778821E1,1.2438249E1,2.8563434E2,2.834638E1,6.3054012E1,5.4918146E2,1.5139061E3,2.2072763E1,8.052494E2,1.5195377E2,1.7942863E2,2.7517412E0,2.7988579E1,1.5407989E1,1.9199286E1,1.6401317E2,8.519217E0,3.4408325E1,3.395472E2,2.6288834E2,1.31574375E4,1.946732E2,1.8017113E2,7.152553E2,2.6915016E0,4.4426567E1,1.29018E2,8.31472E3,4.0917527E4,2.8613894E3,1.858128E1,2.6832596E2,1.9435252E0,2.6930222E2,2.1398444E2,2.0647562E0,7.294312E0],"tree_param":{"num_deleted":"0","num_feature":"11","num_nodes":"93","size_leaf_vector":"1"}},{"base_weights":[7.8794277E-1,-1.5564002E0,9.510628E-1,-6.031121E-1,-1.6834493E0,9.7448635E-1,-1.6577116E0,-2.067804E0,2.5867555E-1,-1.6309655E0,-1.8005588E0,1.0025527E0,5.2213913E-1,-8.8314563E-1,-1.8937649E0,-7.39834E-2,-2.1207654E0,-1.5214059E-1,5.1931214E-1,-1.8158948E0,-1.6150227E0,-1.8525269E0,-9.3015695E-1,8.547281E-1,1.0429456E0,-1.2912698E0,8.528297E-1,-3.985157E-3,-1.8582696E0,-1.7746145E0,-1.0438819E-1,-1.2254317E-1,-9.728618E-2,-1.3983811E-1,6.631459E-1,-1.9934256E0,-8.201147E-2,-7.673278E-2,-1.6372792E0,-5.490002E-1,-1.8901446E0,6.0730207E-1,-2.3125052E0,-2.0984106E0,8.89019E-1,8.776383E-1,1.0456543E0,-2.5586593E-1,-1.939546E0,-2.5807292E0,8.888181E-1,-1.2352927E-1,2.8162065E-1,-2.0144193E0,-7.9666877E-1,-8.4030874E-2,-1.0025579E-1,3.8398396E-2,-1.6305058E-1,-7.655858E-2,-1.1154002E-1,-8.66953E-2,-8.006822E-2,-1.8264626E-1,2.71094E-3,-1.0756343E-1,-8.578368E-2,4.9078576E-2,-8.186615E-2,-1.3921112E-1,-8.5804686E-2,-1.1759996E-1,-9.5017456E-2,4.5457717E-2,-5.455321E-2,-1.8203042E-1,4.612504E-2,4.99375E-2,5.239963E-2,-1.1514652E-1,3.310735E-2,-8.695897E-2,-1.701872E-1,-2.5200075E-1,-6.99768E-2,4.5503154E-2,-2.7676573E-2,2.4358429E-2,-1.0326298E-1,-9.149905E-2,-1.4295413E-1,2.3917582E-2,-9.335421E-2],"categories":[],"categories_nodes":[],"categories_segments":[],"categories_sizes":[],"default_left":[0,0,0,0,0,0,0,0,0,0,0,0,0,0,0,0,0,0,0,0,0,0,0,0,0,0,0,0,0,0,0,0,0,0,0,0,0,0,0,0,0,0,0,0,0,0,0,0,0,0,0,0,0,0,0,0,0,0,0,0,0,0,0,0,0,0,0,0,0,0,0,0,0,0,0,0,0,0,0,0,0,0,0,0,0,0,0,0,0,0,0,0,0],"id":17,"left_children":[1,3,5,7,9,11,13,15,17,19,21,23,25,27,29,-1,31,-1,33,35,37,39,41,43,45,47,49,51,53,55,-1,-1,-1,-1,57,59,-1,-1,61,63,65,67,69,71,73,75,77,79,81,83,85,-1,87,89,91,-1,-1,-1,-1,-1,-1,-1,-1,-1,-1,-1,-1,-1,-1,-1,-1,-1,-1,-1,-1,-1,-1,-1,-1,-1,-1,-1,-1,-1,-1,-1,-1,-1,-1,-1,-1,-1,-1],"loss_changes":[2.6835992E4,5.5191406E2,4.0106953E3,6.801947E2,2.1820312E1,8.250156E2,1.051427E2,3.078186E0,2.9404538E2,5.298828E0,5.4225586E1,3.646836E2,2.2804246E3,1.1858003E2,6.624634E0,0E0,5.6765137E0,0E0,1.5251224E2,3.3902588E0,2.1010742E0,5.614673E1,1.5378273E2,1.3329873E3,2.0613281E1,3.932619E2,3.996018E2,5.264775E1,9.266708E0,2.7728271E0,0E0,0E0,0E0,0E0,1.27364105E2,7.72937E0,0E0,0E0,4.1811523E0,6.4082184E1,4.7930664E1,3.0788837E1,5.901886E0,3.1235352E0,5.19083E2,1.6174182E2,4.140625E0,4.2815344E2,9.987219E1,9.057176E1,9.803003E1,0E0,3.3322098E1,3.5729065E0,1.4628118E1,0E0,0E0,0E0,0E0,0E0,0E0,0E0,0E0,0E0,0E0,0E0,0E0,0E0,0E0,0E0,0E0,0E0,0E0,0E0,0E0,0E0,0E0,0E0,0E0,0E0,0E0,0E0,0E0,0E0,0E0,0E0,0E0,0E0,0E0,0E0,0E0,0E0,0E0],"parents":[2147483647,0,0,1,1,2,2,3,3,4,4,5,5,6,6,7,7,8,8,9,9,10,10,11,11,12,12,13,13,14,14,16,16,18,18,19,19,20,20,21,21,22,22,23,23,24,24,25,25,26,26,27,27,28,28,29,29,34,34,35,35,38,38,39,39,40,40,41,41,42,42,43,43,44,44,45,45,46,46,47,47,48,48,49,49,50,50,52,52,53,53,54,54],"right_children":[2,4,6,8,10,12,14,16,18,20,22,24,26,28,30,-1,32,-1,34,36,38,40,42,44,46,48,50,52,54,56,-1,-1,-1,-1,58,60,-1,-1,62,64,66,68,70,72,74,76,78,80,82,84,86,-1,88,90,92,-1,-1,-1,-1,-1,-1,-1,-1,-1,-1,-1,-1,-1,-1,-1,-1,-1,-1,-1,-1,-1,-1,-1,-1,-1,-1,-1,-1,-1,-1,-1,-1,-1,-1,-1,-1,-1,-1],"split_conditions":[2.7341336E-1,-9.193942E-1,1.22930944E-1,-6.2125885E-1,-6.2125885E-1,-5.0649256E-1,2.286739E-1,2.485E1,-7.655777E-1,-6.5755415E-1,8.493932E1,-6.2125885E-1,-6.2125885E-1,-5.961815E-1,1.185287E0,-7.39834E-2,5.118E1,-1.5214059E-1,-1.2075219E0,5.331E1,2.569E1,-8.539342E-1,-1.392247E0,1.1316473E0,8.6120147E-1,4.307E1,7.9304713E-1,-7.655777E-1,9.381942E1,-6.2125885E-1,-1.0438819E-1,-1.2254317E-1,-9.728618E-2,-1.3983811E-1,-3.6053646E-1,2.569E1,-8.201147E-2,-7.673278E-2,4.575295E1,-1.0107973E0,-5.8343045E-2,-5.2159864E-1,1.581785E-1,6.056E1,1.5492684E0,-1.1272556E0,1.185287E0,4.048266E1,1.7415931E0,-1.6912162E-1,1.5492684E0,-1.2352927E-1,1.1826997E0,-6.2125885E-1,9.4665115E1,-8.4030874E-2,-1.0025579E-1,3.8398396E-2,-1.6305058E-1,-7.655858E-2,-1.1154002E-1,-8.66953E-2,-8.006822E-2,-1.8264626E-1,2.71094E-3,-1.0756343E-1,-8.578368E-2,4.9078576E-2,-8.186615E-2,-1.3921112E-1,-8.5804686E-2,-1.1759996E-1,-9.5017456E-2,4.5457717E-2,-5.455321E-2,-1.8203042E-1,4.612504E-2,4.99375E-2,5.239963E-2,-1.1514652E-1,3.310735E-2,-8.695897E-2,-1.701872E-1,-2.5200075E-1,-6.99768E-2,4.5503154E-2,-2.7676573E-2,2.4358429E-2,-1.0326298E-1,-9.149905E-2,-1.4295413E-1,2.3917582E-2,-9.335421E-2],"split_indices":[3,4,4,8,8,4,4,1,10,4,1,8,8,6,3,0,1,0,9,1,1,4,6,3,3,1,3,10,1,8,0,0,0,0,6,1,0,0,1,6,4,4,4,1,10,10,3,1,3,4,10,0,10,8,1,0,0,0,0,0,0,0,0,0,0,0,0,0,0,0,0,0,0,0,0,0,0,0,0,0,0,0,0,0,0,0,0,0,0,0,0,0,0],"split_type":[0,0,0,0,0,0,0,0,0,0,0,0,0,0,0,0,0,0,0,0,0,0,0,0,0,0,0,0,0,0,0,0,0,0,0,0,0,0,0,0,0,0,0,0,0,0,0,0,0,0,0,0,0,0,0,0,0,0,0,0,0,0,0,0,0,0,0,0,0,0,0,0,0,0,0,0,0,0,0,0,0,0,0,0,0,0,0,0,0,0,0,0,0],"sum_hessian":[7.0171234E4,4.5643516E3,6.560688E4,5.374495E2,4.026902E3,6.5023676E4,5.8320435E2,1.9856668E2,3.3888284E2,2.791012E3,1.23589E3,6.1223758E4,3.799917E3,1.373282E2,4.4587616E2,1.8794306E1,1.7977237E2,2.4014633E1,3.148682E2,2.1255743E2,2.5784546E3,1.1651927E3,7.0697205E1,1.3143826E4,4.8079934E4,5.8562396E2,3.214293E3,7.274564E1,6.458255E1,2.8251083E2,1.6336533E2,5.7789673E1,1.219827E2,1.2322797E1,3.025454E2,1.00570885E2,1.1198655E2,5.743728E2,2.0040818E3,3.3119823E1,1.132073E3,3.37362E1,3.6961006E1,1.5017917E2,1.2993647E4,7.8036804E2,4.7299562E4,2.2602286E2,3.5960107E2,3.2607265E1,3.1816858E3,6.755162E0,6.599048E1,5.5518818E1,9.063733E0,2.0656577E2,7.594506E1,2.9545746E2,7.0879555E0,3.6650204E1,6.3920685E1,5.302325E2,1.4738494E3,4.5665345E0,2.8553288E1,4.488968E2,6.831762E2,2.9397203E1,4.338996E0,1.8589666E1,1.8371338E1,6.1088825E1,8.909034E1,1.2863382E4,1.3026572E2,6.8842435E0,7.7348376E2,2.266347E3,4.503322E4,6.9511505E1,1.5651135E2,3.182397E2,4.136139E1,9.51981E0,2.3087456E1,3.1358652E3,4.5820564E1,6.140485E1,4.5856314E0,4.8167606E1,7.351211E0,4.3889594E0,4.6747737E0],"tree_param":{"num_deleted":"0","num_feature":"11","num_nodes":"93","size_leaf_vector":"1"}},{"base_weights":[7.814648E-1,-1.5136207E0,9.452608E-1,-1.6329557E0,-1.1842117E0,-1.4492453E-4,9.6885014E-1,-1.5687482E0,-1.7785014E0,-1.749249E0,-5.1033515E-1,-8.469493E-2,5.895379E-1,7.5607884E-1,1.0280904E0,-7.483732E-2,-1.5908393E0,-1.6740539E0,-1.02490425E-1,-8.332165E-2,-1.859274E0,-2.7659452E-1,-2.0721493E0,-1.0381341E0,6.7950904E-1,-1.0120397E0,8.170408E-1,9.2480236E-1,1.0333558E0,-7.735094E-2,-1.7293253E0,-1.6924576E0,-9.382314E-1,-7.864554E-2,-1.0126694E-1,-1.1102376E-1,-6.787131E-2,-1.1275663E0,-1.0976914E-1,1.995008E-1,-1.4339386E-1,7.090914E-1,-1.10227816E-1,-5.389612E-2,-2.4153926E0,3.0051616E-1,9.369054E-1,4.4208208E-1,9.4353855E-1,1.0351033E0,9.2763513E-1,-7.916384E-2,-8.897018E-2,-7.42126E-2,-8.747672E-2,-9.405214E-3,-8.725691E-2,2.219607E-3,-1.1773378E-1,-4.7887615E-3,-1.2318199E-1,-1.2916316E-1,3.9017305E-2,3.7057247E-2,-5.8129765E-2,-1.2467823E-1,1.746336E-2,-9.184214E-2,-1.5515311E-1,-1.4009842E-1,2.1061545E-2,4.765316E-2,9.148761E-3,-2.3904581E-1,2.8768077E-2,4.8123967E-2,3.9025374E-2,4.773456E-2,5.1850703E-2,4.6902355E-2,-1.398415E-1],"categories":[],"categories_nodes":[],"categories_segments":[],"categories_sizes":[],"default_left":[0,0,0,0,0,0,0,0,0,0,0,0,0,0,0,0,0,0,0,0,0,0,0,0,0,0,0,0,0,0,0,0,0,0,0,0,0,0,0,0,0,0,0,0,0,0,0,0,0,0,0,0,0,0,0,0,0,0,0,0,0,0,0,0,0,0,0,0,0,0,0,0,0,0,0,0,0,0,0,0,0],"id":18,"left_children":[1,3,5,7,9,11,13,15,17,19,21,-1,23,25,27,-1,29,31,-1,-1,33,35,37,39,41,43,45,47,49,-1,51,53,55,-1,-1,-1,57,59,-1,61,-1,63,-1,65,67,69,71,73,75,77,79,-1,-1,-1,-1,-1,-1,-1,-1,-1,-1,-1,-1,-1,-1,-1,-1,-1,-1,-1,-1,-1,-1,-1,-1,-1,-1,-1,-1,-1,-1],"loss_changes":[2.5332762E4,1.7453223E2,1.402668E3,2.7980469E1,4.5504712E2,1.5312651E3,7.726992E2,1.2666016E0,2.4918213E1,2.8325195E0,1.9930757E2,0E0,1.6724338E2,1.4417505E3,2.5152344E1,0E0,7.876953E0,8.267944E0,0E0,0E0,9.69635E0,1.935492E2,5.803467E0,1.3636305E2,9.355698E1,5.995636E2,7.998291E2,2.072522E1,7.4726562E0,0E0,1.7773438E-1,5.826538E0,1.1779156E1,0E0,0E0,0E0,1.11047516E2,1.3913371E1,0E0,6.1343025E1,0E0,6.493927E1,0E0,2.6256644E2,6.6285034E1,9.133348E2,1.275957E2,6.486131E1,6.1949463E0,5.9140625E0,3.1789734E1,0E0,0E0,0E0,0E0,0E0,0E0,0E0,0E0,0E0,0E0,0E0,0E0,0E0,0E0,0E0,0E0,0E0,0E0,0E0,0E0,0E0,0E0,0E0,0E0,0E0,0E0,0E0,0E0,0E0,0E0],"parents":[2147483647,0,0,1,1,2,2,3,3,4,4,5,5,6,6,7,7,8,8,9,9,10,10,12,12,13,13,14,14,16,16,17,17,20,20,21,21,22,22,23,23,24,24,25,25,26,26,27,27,28,28,30,30,31,31,32,32,36,36,37,37,39,39,41,41,43,43,44,44,45,45,46,46,47,47,48,48,49,49,50,50],"right_children":[2,4,6,8,10,12,14,16,18,20,22,-1,24,26,28,-1,30,32,-1,-1,34,36,38,40,42,44,46,48,50,-1,52,54,56,-1,-1,-1,58,60,-1,62,-1,64,-1,66,68,70,72,74,76,78,80,-1,-1,-1,-1,-1,-1,-1,-1,-1,-1,-1,-1,-1,-1,-1,-1,-1,-1,-1,-1,-1,-1,-1,-1,-1,-1,-1,-1,-1,-1],"split_conditions":[2.7341336E-1,-1.9258088E-1,8.902691E-1,-6.2125885E-1,-6.2125885E-1,-6.2125885E-1,-6.2125885E-1,2.569E1,6.99E1,-6.4099205E-1,-3.6660346E-1,-8.469493E-2,-1.2075219E0,1.2234368E0,1.185287E0,-7.483732E-2,-6.4099205E-1,-2.2945815E-1,-1.02490425E-1,-8.332165E-2,2.923E1,-1.2075219E0,-3.6053646E-1,4.6E-2,2.06E-1,4.85E1,-6.4099205E-1,-1.6593292E0,1.419784E0,-7.735094E-2,2.923E1,5.379E1,-1.0107973E0,-7.864554E-2,-1.0126694E-1,-1.1102376E-1,1.54E-1,8.567469E-2,-1.0976914E-1,2.2084042E-2,-1.4339386E-1,1.419784E0,-1.10227816E-1,4.205214E-1,1.1316473E0,7.63E1,1.2319973E0,-1.1118181E0,8.779E1,-1.384162E0,2.3049568E-1,-7.916384E-2,-8.897018E-2,-7.42126E-2,-8.747672E-2,-9.405214E-3,-8.725691E-2,2.219607E-3,-1.1773378E-1,-4.7887615E-3,-1.2318199E-1,-1.2916316E-1,3.9017305E-2,3.7057247E-2,-5.8129765E-2,-1.2467823E-1,1.746336E-2,-9.184214E-2,-1.5515311E-1,-1.4009842E-1,2.1061545E-2,4.765316E-2,9.148761E-3,-2.3904581E-1,2.8768077E-2,4.8123967E-2,3.9025374E-2,4.773456E-2,5.1850703E-2,4.6902355E-2,-1.398415E-1],"split_indices":[3,3,3,8,8,8,8,1,1,7,6,0,9,3,3,0,7,3,0,0,1,9,6,2,2,1,7,5,9,0,1,1,6,0,0,0,2,3,0,2,0,9,0,6,3,1,5,6,1,9,2,0,0,0,0,0,0,0,0,0,0,0,0,0,0,0,0,0,0,0,0,0,0,0,0,0,0,0,0,0,0],"split_type":[0,0,0,0,0,0,0,0,0,0,0,0,0,0,0,0,0,0,0,0,0,0,0,0,0,0,0,0,0,0,0,0,0,0,0,0,0,0,0,0,0,0,0,0,0,0,0,0,0,0,0,0,0,0,0,0,0,0,0,0,0,0,0,0,0,0,0,0,0,0,0,0,0,0,0,0,0,0,0,0,0],"sum_hessian":[6.738287E4,4.4880947E3,6.2894773E4,3.2916653E3,1.1964296E3,1.5311398E3,6.1363637E4,2.2922268E3,9.9943835E2,6.499003E2,5.4652924E2,3.9492346E2,1.1362163E3,1.3367135E4,4.79965E4,5.543085E2,1.7379183E3,7.268044E2,2.72634E2,3.8001096E2,2.6988934E2,4.7640735E2,7.012189E1,5.8963654E1,1.0772527E3,4.4499716E2,1.2922138E4,2.3366433E3,4.5659855E4,1.3294253E3,4.084931E2,7.0780145E2,1.9002926E1,1.029072E2,1.6698215E2,4.5259377E1,4.3114795E2,9.263929E0,6.0857956E1,3.5704296E1,2.3259356E1,1.0670618E3,1.01909075E1,2.65063E2,1.7993419E2,2.4345579E3,1.0487579E4,8.822412E1,2.2484192E3,4.4908742E4,7.511147E2,1.1263128E2,2.9586182E2,1.5809729E2,5.4970416E2,1.0486991E1,8.515935E0,4.1190726E2,1.92407E1,5.831896E0,3.4320338E0,5.570283E0,3.0134014E1,1.0496893E3,1.737242E1,3.6855244E1,2.2820773E2,9.971398E1,8.022021E1,9.034682E1,2.3442112E3,1.0267272E4,2.203069E2,1.327569E0,8.689655E1,2.0099955E3,2.3842366E2,1.0539525E3,4.385479E4,7.497668E2,1.3478748E0],"tree_param":{"num_deleted":"0","num_feature":"11","num_nodes":"81","size_leaf_vector":"1"}},{"base_weights":[7.753117E-1,-1.4652754E0,9.391662E-1,-6.603316E-1,-1.5812923E0,9.7089577E-1,-1.0451492E0,-1.8932523E0,1.2964025E-1,-1.5940992E0,-1.1586739E0,7.679598E-1,1.0264786E0,-1.7719846E0,-2.796051E-1,-6.981779E-2,-1.9307504E0,-1.3375118E-1,3.9513248E-1,-1.5332313E0,-1.7350442E0,5.6229454E-1,-1.8426358E0,-1.4010904E0,8.429224E-1,7.0263803E-1,1.0322765E0,-7.913055E-2,-9.974788E-2,3.8774857E-1,-1.9580108E0,-1.0922214E-1,-8.950987E-2,5.122729E-1,-1.3411002E-1,-1.6279312E0,-7.577178E-2,-4.399352E-1,-1.7577602E0,9.588217E-1,-8.275197E-2,-2.0683415E0,-8.089509E-2,8.046321E-1,-1.9688568E0,8.869186E-1,-6.285097E-1,-1.6500376E-1,7.8435117E-1,1.0384784E0,9.178191E-1,-2.4463096E0,6.223158E-1,-1.04193844E-1,-1.1859812E0,2.9072737E-2,-1.3427223E-1,-8.5164264E-2,-7.591658E-2,-1.1862419E-1,1.1903669E-2,-9.884734E-2,-8.0208465E-2,1.7334424E-2,5.15407E-2,-8.2873456E-2,-1.2174226E-1,5.179757E-2,-1.5134223E-1,-8.936947E-2,-1.4794894E-1,4.5283016E-2,-4.4451363E-2,-1.5887176E-1,